<?xml version="1.0"?>
<opencv_storage>
<my_svm type_id="opencv-ml-svm">
  <svm_type>C_SVC</svm_type>
  <kernel><type>RBF</type>
    <gamma>5.0625000000000009e-001</gamma></kernel>
  <C>3.1250000000000000e+002</C>
  <term_criteria><epsilon>1.1920928955078125e-007</epsilon>
    <iterations>1000</iterations></term_criteria>
  <var_all>7</var_all>
  <var_count>7</var_count>
  <class_count>2</class_count>
  <class_labels type_id="opencv-matrix">
    <rows>1</rows>
    <cols>2</cols>
    <dt>i</dt>
    <data>
      1 8</data></class_labels>
  <sv_total>105</sv_total>
  <support_vectors>
    <_>
      3.59441966e-001 9.88990813e-002 4.70427377e-003 2.42691371e-003
      8.11463633e-006 6.76291937e-004 1.18194532e-006</_>
    <_>
      3.85551453e-001 8.31262171e-002 1.97441839e-002 5.48540102e-003
      5.70795310e-005 1.35909743e-003 8.81427809e-007</_>
    <_>
      3.39997470e-001 8.89291018e-002 1.61130185e-004 1.80012084e-005
      -3.93490712e-010 -3.08772269e-006 -8.86039297e-010</_>
    <_>
      3.26798230e-001 7.71119446e-002 1.46944402e-003 3.88443586e-004
      2.44729563e-007 6.21341605e-005 1.61968998e-007</_>
    <_>
      1.66666672e-001 1.73611112e-003 2.62532909e-027 1.00974196e-027 0.
      2.52435490e-029 0.</_>
    <_>
      1.85185179e-001 8.57338775e-003 1.01110490e-025 7.04741709e-026 0.
      -4.35354076e-027 0.</_>
    <_>
      0. 0. 0. 0. 0. 0. 0.</_>
    <_>
      2.78306663e-001 5.00656031e-002 4.98954440e-004 1.24787970e-004
      2.66852673e-008 1.74893867e-005 1.60457585e-008</_>
    <_>
      0. 0. 0. 0. 0. 0. 0.</_>
    <_>
      0. 0. 0. 0. 0. 0. 0.</_>
    <_>
      3.12479168e-001 6.94065690e-002 3.79432517e-004 3.83596853e-005
      -3.97343758e-009 -8.71223529e-006 -2.37251796e-009</_>
    <_>
      0. 0. 0. 0. 0. 0. 0.</_>
    <_>
      3.24480236e-001 7.76971504e-002 3.48128015e-005 3.83602537e-006
      -1.07732651e-011 -5.94821756e-007 -4.30003567e-011</_>
    <_>
      3.30087900e-001 7.90169239e-002 1.33441557e-004 2.72666693e-005
      1.19267973e-009 4.34993308e-006 -1.13253706e-009</_>
    <_>
      2.57777780e-001 3.79456803e-002 8.95964855e-004 2.16669403e-004
      8.03142868e-008 2.52778955e-005 -5.16050918e-008</_>
    <_>
      3.22232425e-001 7.57007003e-002 6.76909753e-004 2.31841725e-004
      8.80504061e-008 4.68528560e-005 -2.61251749e-008</_>
    <_>
      1.66666672e-001 0. 3.65526589e-026 6.72488144e-026 0. 0. 0.</_>
    <_>
      3.53946596e-001 9.81687978e-002 2.22426970e-005 3.71248757e-006
      2.25738907e-011 3.52363685e-007 -2.50703971e-011</_>
    <_>
      1.66666672e-001 3.15544362e-028 9.00566765e-025 8.85597340e-025 0.
      -1.46982196e-038 0.</_>
    <_>
      0. 0. 0. 0. 0. 0. 0.</_>
    <_>
      0. 0. 0. 0. 0. 0. 0.</_>
    <_>
      2.92992264e-001 2.15957463e-002 3.68207414e-003 5.70625300e-004
      8.22766879e-007 5.95220845e-005 8.48274979e-008</_>
    <_>
      0. 0. 0. 0. 0. 0. 0.</_>
    <_>
      2.31499568e-001 8.35532043e-003 7.58277252e-003 1.29569310e-003
      4.03663307e-006 1.13712616e-004 -4.47119248e-007</_>
    <_>
      3.29696268e-001 8.11620876e-002 1.50579377e-004 4.58958239e-005
      3.46607920e-009 8.95898120e-006 1.59490865e-009</_>
    <_>
      3.50714117e-001 9.44764540e-002 2.48451164e-004 1.83053344e-004
      3.88954255e-008 5.61515735e-005 -3.33277939e-009</_>
    <_>
      2.85864800e-001 5.49166910e-002 9.33943593e-005 4.29882421e-005
      2.69103873e-009 9.28790632e-006 4.21576801e-010</_>
    <_>
      3.50595653e-001 8.67253765e-002 3.92724434e-003 4.77777066e-004
      -4.24339305e-007 -1.10188194e-004 4.98248596e-007</_>
    <_>
      2.57777780e-001 3.79456803e-002 8.95964855e-004 2.16669403e-004
      8.03142868e-008 2.52778955e-005 -5.16050918e-008</_>
    <_>
      1.66666672e-001 0. 1.82561346e-025 1.51380514e-024 0. 0. 0.</_>
    <_>
      1.66666672e-001 7.88860905e-031 3.48873735e-028 1.05411538e-027 0.
      -9.30462180e-043 0.</_>
    <_>
      2.05761313e-001 1.26166400e-002 1.57586916e-003 2.77662970e-004
      1.70442561e-007 2.81789489e-005 6.84383963e-008</_>
    <_>
      4.17609632e-001 9.32832509e-002 6.53216895e-003 8.27043201e-004
      1.92178732e-006 2.48820230e-004 4.43582984e-008</_>
    <_>
      3.28773081e-001 7.95986727e-002 7.20426266e-004 2.32106278e-004
      8.62976393e-008 4.74316403e-005 3.95116508e-008</_>
    <_>
      3.55208188e-001 9.63775218e-002 7.39245588e-005 2.48263841e-005
      9.81305814e-010 3.30272633e-006 4.10136786e-010</_>
    <_>
      3.94818485e-001 3.55802253e-002 1.27661536e-002 2.31620521e-004
      3.95582248e-007 -1.18041953e-005 -4.63338985e-008</_>
    <_>
      1.66666672e-001 3.23117427e-027 4.70337804e-023 3.39475247e-023
      1.40129846e-045 -1.28170210e-036 -1.40129846e-045</_>
    <_>
      3.50827843e-001 9.60245281e-002 1.19368007e-004 5.16685250e-005
      3.92423249e-009 1.21302728e-005 1.03226161e-009</_>
    <_>
      2.57630438e-001 3.75588499e-002 6.07555499e-004 1.88386868e-004
      5.76949830e-008 3.03794768e-005 -2.70789400e-008</_>
    <_>
      2.62881756e-001 4.12191302e-002 1.46937396e-004 1.92255084e-005
      4.77257567e-010 1.02818422e-006 9.03538744e-010</_>
    <_>
      2.99237221e-001 6.23845048e-002 1.82093936e-004 1.86049456e-005
      -7.26617710e-010 -3.42724206e-006 8.02938216e-010</_>
    <_>
      1.66666672e-001 3.23117427e-027 5.16414349e-023 6.70412115e-023
      4.20389539e-045 -3.03355603e-036 -1.40129846e-045</_>
    <_>
      2.22222224e-001 1.23456791e-002 5.48696844e-003 2.19478738e-004
      -2.40854575e-007 -2.43865270e-005 1.10896995e-017</_>
    <_>
      4.07232165e-001 3.96082066e-002 6.51712203e-003 1.12824480e-003
      -1.43752720e-006 2.12842075e-004 -2.70061105e-006</_>
    <_>
      3.07921946e-001 6.36560693e-002 1.33971940e-003 5.34352323e-004
      4.52096430e-007 1.34810558e-004 -4.04442124e-009</_>
    <_>
      3.37502629e-001 8.31393600e-002 2.05039140e-003 1.30088651e-003
      2.11900442e-006 3.59126687e-004 -1.54116819e-007</_>
    <_>
      1.66666672e-001 0. 4.13994203e-027 9.38050280e-026 0. 0. 0.</_>
    <_>
      3.18985641e-001 7.52713606e-002 6.10058560e-005 3.33589232e-005
      1.50485824e-009 9.12648193e-006 -9.25926003e-012</_>
    <_>
      1.66666672e-001 3.15544362e-028 7.82351225e-025 8.73000809e-025 0.
      -1.51560518e-038 0.</_>
    <_>
      3.25007856e-001 7.83471167e-002 4.63103279e-005 1.85104673e-005
      4.91546359e-010 3.17532204e-006 -2.28253666e-010</_>
    <_>
      1.66666672e-001 2.01948392e-028 4.67005656e-025 5.11434302e-025 0.
      -5.61487963e-039 0.</_>
    <_>
      3.08061868e-001 3.58933508e-002 1.27655147e-002 5.04016934e-004
      -3.40186887e-007 -1.79728431e-005 -1.23236794e-006</_>
    <_>
      2.22222224e-001 1.23456791e-002 5.48696844e-003 2.19478738e-004
      -2.40854575e-007 -2.43865270e-005 9.97794224e-018</_>
    <_>
      2.76720762e-001 4.69344929e-002 6.42524101e-004 5.98739607e-005
      -9.20933108e-009 -1.02692857e-005 -7.28701854e-009</_>
    <_>
      2.78842151e-001 4.83984239e-002 9.25847271e-004 1.09050445e-004
      -5.52453194e-009 -9.72089128e-006 -3.42073676e-008</_>
    <_>
      2.70178825e-001 3.52305993e-002 4.00501210e-003 2.75448343e-004
      -2.40809669e-007 -4.31415574e-005 1.60344896e-007</_>
    <_>
      3.78045171e-001 1.05662197e-001 2.74269492e-003 3.35577322e-004
      -9.81125581e-008 -7.19596064e-005 -3.06627754e-007</_>
    <_>
      3.83783370e-001 8.86248872e-002 2.99596880e-003 1.27268373e-004
      -1.59642628e-008 -2.92902314e-005 -7.69481687e-008</_>
    <_>
      2.26173714e-001 2.35600602e-002 6.84931292e-004 1.26890562e-004
      3.64952939e-008 1.84408473e-005 8.21409696e-009</_>
    <_>
      2.36849383e-001 2.86799259e-002 6.60758931e-004 2.06914934e-004
      7.64911050e-008 3.49716829e-005 1.62817126e-009</_>
    <_>
      2.68640697e-001 4.35367525e-002 1.13201328e-003 1.24790444e-004
      -1.36684282e-008 -1.15848270e-005 4.48668764e-008</_>
    <_>
      1.59863949e-001 0. 3.50051904e-027 1.19165290e-026 0. 0. 0.</_>
    <_>
      0. 0. 0. 0. 0. 0. 0.</_>
    <_>
      2.24999994e-001 2.38472223e-002 2.92905934e-026 8.05583447e-027 0.
      -1.24011197e-027 0.</_>
    <_>
      2.58360267e-001 3.89083475e-002 1.27656432e-003 4.14606970e-004
      2.99257749e-007 7.90225604e-005 3.77648277e-008</_>
    <_>
      2.48337999e-001 3.30339596e-002 2.76155857e-004 3.35276709e-005
      -2.56739074e-009 -4.94867709e-006 1.95356997e-009</_>
    <_>
      2.44005263e-001 3.27232815e-002 1.21199582e-005 3.56952864e-006
      1.84756377e-011 3.47679475e-007 -1.44873046e-011</_>
    <_>
      0. 0. 0. 0. 0. 0. 0.</_>
    <_>
      2.31619462e-001 2.56107226e-002 6.03094231e-004 8.22960574e-005
      1.61385749e-008 8.91722721e-006 -8.69988348e-009</_>
    <_>
      1.65000007e-001 1.73611112e-003 3.51551759e-029 4.91552095e-027 0.
      1.28816149e-028 0.</_>
    <_>
      0. 0. 0. 0. 0. 0. 0.</_>
    <_>
      2.58321136e-001 3.91123481e-002 2.48967990e-004 7.55392393e-005
      1.03177715e-008 1.35943283e-005 -9.26716259e-010</_>
    <_>
      3.90250713e-001 7.99159557e-002 8.70118849e-003 3.93851381e-003
      2.19467893e-005 8.50161712e-004 7.06591482e-006</_>
    <_>
      3.80302906e-001 9.98158306e-002 8.88523704e-004 2.18236889e-003
      2.93516632e-006 6.83909340e-004 7.87497470e-007</_>
    <_>
      2.33482018e-001 2.74314377e-002 2.68054806e-004 5.06994329e-005
      3.86794685e-009 3.26904910e-006 4.46897630e-009</_>
    <_>
      4.12924469e-001 1.05644435e-001 1.73161132e-003 4.26709128e-004
      2.57798774e-007 3.72720497e-005 2.60917915e-007</_>
    <_>
      2.47682706e-001 3.43025737e-002 1.39538708e-004 1.25833376e-005
      -5.27279775e-010 -2.33055403e-006 -6.62385555e-021</_>
    <_>
      2.24999994e-001 2.38472223e-002 2.19719856e-026 1.28233677e-026 0.
      -1.97844023e-027 0.</_>
    <_>
      3.27764422e-001 5.05370907e-002 6.37580990e-004 2.85953283e-004
      -8.21250197e-008 6.26038091e-005 9.03522164e-008</_>
    <_>
      2.46401623e-001 3.09540089e-002 1.15909008e-003 3.36386234e-004
      1.97417791e-007 5.50473560e-005 -7.17345472e-008</_>
    <_>
      2.88681567e-001 5.66156469e-002 7.57447706e-005 3.22920823e-005
      1.59515268e-009 7.65605364e-006 7.79676809e-011</_>
    <_>
      1.59863949e-001 0. 3.91885875e-027 9.18501721e-027 0. 0. 0.</_>
    <_>
      2.24999994e-001 2.38472223e-002 2.19719856e-026 1.28233677e-026 0.
      -1.97844023e-027 0.</_>
    <_>
      1.59863949e-001 5.37122602e-030 3.24232502e-027 3.99133766e-027 0.
      -6.04239898e-042 0.</_>
    <_>
      2.97338307e-001 5.95862158e-002 1.20603340e-003 5.37938788e-004
      4.31804210e-007 1.29671564e-004 -3.58556953e-008</_>
    <_>
      3.88382524e-001 9.98950899e-002 1.31020660e-003 2.05741683e-003
      3.35081404e-006 6.42528932e-004 -4.27313239e-007</_>
    <_>
      3.40000004e-001 6.90949410e-002 8.42904847e-004 3.20643412e-005
      5.22932675e-009 4.25854296e-007 6.64372224e-010</_>
    <_>
      3.57555926e-001 8.46806020e-002 1.08105326e-002 4.17625252e-003
      2.80571949e-005 1.20837335e-003 -4.63983156e-007</_>
    <_>
      4.36483592e-001 1.18423790e-001 5.16637985e-004 3.38060316e-004
      6.14970190e-008 7.31909895e-005 1.27194724e-007</_>
    <_>
      3.48671168e-001 7.08497912e-002 9.92336310e-004 8.77365470e-004
      7.98253041e-007 1.90242659e-004 -1.81620649e-007</_>
    <_>
      2.24999994e-001 2.38472223e-002 2.44204389e-026 1.09704829e-026 0.
      -1.68572854e-027 0.</_>
    <_>
      2.48451188e-001 3.45128290e-002 2.52388912e-004 4.15307986e-005
      2.73369039e-009 3.07615460e-006 3.25671867e-009</_>
    <_>
      2.63878942e-001 4.26080413e-002 3.80327692e-004 1.31710185e-004
      2.94050047e-008 2.61416862e-005 -2.08283391e-009</_>
    <_>
      2.47170776e-001 3.30499485e-002 1.31248773e-004 4.27593404e-005
      3.16891580e-009 7.42083830e-006 4.67908046e-010</_>
    <_>
      1.65000007e-001 1.73611112e-003 3.51551759e-029 4.91552095e-027 0.
      1.28816149e-028 0.</_>
    <_>
      0. 0. 0. 0. 0. 0. 0.</_>
    <_>
      1.59863949e-001 0. 1.99941765e-027 1.31715489e-026 0. 0. 0.</_>
    <_>
      2.54802614e-001 3.76342423e-002 5.33203187e-004 5.10671671e-005
      -3.67002428e-009 -6.66946244e-006 7.58555707e-009</_>
    <_>
      2.67605066e-001 4.17492837e-002 5.85249276e-004 1.64609693e-004
      4.76774495e-008 2.84050820e-005 -1.83646733e-008</_>
    <_>
      1.59863949e-001 0. 5.69065036e-027 1.09568088e-026 0. 0. 0.</_>
    <_>
      3.69329929e-001 8.20666254e-002 2.09283177e-003 6.49856011e-005
      -2.02163424e-008 -5.43661827e-006 -1.28709532e-008</_>
    <_>
      2.21864179e-001 2.28301231e-002 1.15381161e-004 1.47065384e-005
      3.44815537e-010 6.77499713e-007 4.98098840e-010</_>
    <_>
      2.52781183e-001 3.22416127e-002 9.94269154e-004 1.08977154e-004
      6.31869224e-009 3.41917917e-006 3.53110785e-008</_>
    <_>
      1.59863949e-001 5.37122602e-030 2.53176260e-027 3.55146566e-027 0.
      -7.53197925e-042 0.</_>
    <_>
      2.30666667e-001 2.46712547e-002 5.99129649e-004 4.71477324e-005
      -7.69631825e-009 -7.40360247e-006 -1.88640681e-009</_></support_vectors>
  <decision_functions>
    <_>
      <sv_count>105</sv_count>
      <rho>-1.8930811812259833e+001</rho>
      <alpha>
        1.8086084014876948e+002 3.1250000000000000e+002
        3.1250000000000000e+002 3.1250000000000000e+002
        3.1250000000000000e+002 3.1250000000000000e+002
        2.2849146324832779e+000 3.1250000000000000e+002
        2.5192894940696115e+002 3.1250000000000000e+002
        3.1250000000000000e+002 3.1250000000000000e+002
        3.1250000000000000e+002 3.1250000000000000e+002
        3.1250000000000000e+002 3.1250000000000000e+002
        3.1250000000000000e+002 3.1250000000000000e+002
        3.1250000000000000e+002 3.1250000000000000e+002
        3.1250000000000000e+002 3.1250000000000000e+002
        1.5623714430427714e+002 3.1250000000000000e+002
        3.1250000000000000e+002 3.1250000000000000e+002
        3.1250000000000000e+002 3.1250000000000000e+002
        3.1250000000000000e+002 3.1250000000000000e+002
        3.1250000000000000e+002 3.1250000000000000e+002
        1.4291417050507476e+002 3.1250000000000000e+002
        3.1250000000000000e+002 3.1250000000000000e+002
        3.1250000000000000e+002 3.1250000000000000e+002
        3.1250000000000000e+002 3.1250000000000000e+002
        3.1250000000000000e+002 3.1250000000000000e+002
        3.1250000000000000e+002 3.1250000000000000e+002
        3.1250000000000000e+002 3.1250000000000000e+002
        3.1250000000000000e+002 3.1250000000000000e+002
        3.1250000000000000e+002 3.1250000000000000e+002
        3.1250000000000000e+002 3.1250000000000000e+002
        3.1250000000000000e+002 -3.1250000000000000e+002
        -3.1250000000000000e+002 -3.1250000000000000e+002
        -3.1250000000000000e+002 -3.1250000000000000e+002
        -3.1250000000000000e+002 -3.1250000000000000e+002
        -3.1250000000000000e+002 -3.1250000000000000e+002
        -3.1250000000000000e+002 -3.1250000000000000e+002
        -3.1250000000000000e+002 -3.1250000000000000e+002
        -3.1250000000000000e+002 -3.1250000000000000e+002
        -3.1250000000000000e+002 -7.7502956415430845e+001
        -3.1250000000000000e+002 -3.1250000000000000e+002
        -3.1250000000000000e+002 -3.1250000000000000e+002
        -3.1250000000000000e+002 -3.1250000000000000e+002
        -3.1250000000000000e+002 -3.1250000000000000e+002
        -3.1250000000000000e+002 -3.1250000000000000e+002
        -3.1250000000000000e+002 -3.1250000000000000e+002
        -3.1250000000000000e+002 -3.1250000000000000e+002
        -3.1250000000000000e+002 -3.1250000000000000e+002
        -3.1250000000000000e+002 -3.1250000000000000e+002
        -3.1250000000000000e+002 -3.1250000000000000e+002
        -3.1250000000000000e+002 -3.1250000000000000e+002
        -3.1250000000000000e+002 -3.1250000000000000e+002
        -1.2810496935122157e+002 -3.1250000000000000e+002
        -3.1250000000000000e+002 -3.1250000000000000e+002
        -3.1250000000000000e+002 -3.1250000000000000e+002
        -3.1250000000000000e+002 -2.1611809323091339e+002
        -3.1250000000000000e+002 -3.1250000000000000e+002
        -3.1250000000000000e+002</alpha>
      <index>
        0 1 2 3 4 5 6 7 8 9 10 11 12 13 14 15 16 17 18 19 20 21 22 23 24
        25 26 27 28 29 30 31 32 33 34 35 36 37 38 39 40 41 42 43 44 45
        46 47 48 49 50 51 52 53 54 55 56 57 58 59 60 61 62 63 64 65 66
        67 68 69 70 71 72 73 74 75 76 77 78 79 80 81 82 83 84 85 86 87
        88 89 90 91 92 93 94 95 96 97 98 99 100 101 102 103 104</index></_></decision_functions></my_svm>
</opencv_storage>
