<?xml version="1.0"?>
<opencv_storage>
<my_svm type_id="opencv-ml-svm">
  <svm_type>C_SVC</svm_type>
  <kernel><type>RBF</type>
    <gamma>20000.</gamma></kernel>
  <C>1.0000000000000001e-05</C>
  <term_criteria><epsilon>2.2204460492503131e-16</epsilon>
    <iterations>1000</iterations></term_criteria>
  <var_all>7</var_all>
  <var_count>7</var_count>
  <class_count>3</class_count>
  <class_labels type_id="opencv-matrix">
    <rows>1</rows>
    <cols>3</cols>
    <dt>i</dt>
    <data>
      4 7 8</data></class_labels>
  <sv_total>4820</sv_total>
  <support_vectors>
    <_>
      1.26296329e+00 2.84008384e-01 1.18242991e+00 6.77198693e-02
      1.56385284e-02 3.30119692e-02 -1.10749342e-02</_>
    <_>
      5.80449343e-01 1.45955622e-01 8.06071982e-02 2.86165141e-02
      1.33241876e-03 1.09291943e-02 3.37083795e-04</_>
    <_>
      9.42896068e-01 1.89142644e-01 6.40930414e-01 7.36439526e-02
      1.32150250e-02 3.02488115e-02 -9.01956949e-03</_>
    <_>
      4.26250964e-01 5.86996712e-02 5.81140369e-02 2.85504293e-02
      1.05901621e-03 6.70861406e-03 4.80549439e-04</_>
    <_>
      3.31076294e-01 5.50728571e-03 2.09026523e-02 2.84973212e-05
      1.09945599e-08 1.02784099e-06 -1.90489207e-08</_>
    <_>
      6.34133756e-01 1.15199097e-01 3.44929192e-03 2.78380979e-03
      -7.48938874e-06 -1.81738069e-04 -4.28042313e-06</_>
    <_>
      5.66943109e-01 5.93734998e-03 8.80894158e-03 4.96209553e-03
      1.30641838e-05 9.09042501e-05 3.00930533e-05</_>
    <_>
      6.11689270e-01 8.48243088e-02 8.33003595e-02 1.33797794e-03
      2.56960590e-07 5.27677221e-05 -1.41229375e-05</_>
    <_>
      9.85630333e-01 2.56401598e-01 9.31239799e-02 1.13102337e-02
      3.27457470e-04 4.79025813e-03 1.65847203e-04</_>
    <_>
      5.46034157e-01 3.45004499e-02 9.01871771e-02 5.87372249e-03
      9.00253435e-05 6.93550741e-04 -1.00854362e-04</_>
    <_>
      4.33141768e-01 6.40863553e-02 1.55515671e-02 6.23897184e-03
      6.12506483e-05 1.54185796e-03 5.00646820e-06</_>
    <_>
      4.98762161e-01 5.30941673e-02 5.25384620e-02 9.78014152e-03
      2.21603797e-04 1.95628381e-03 6.36742743e-06</_>
    <_>
      6.06670558e-01 8.54961574e-03 1.52600452e-01 1.51070319e-02
      -2.56720698e-04 8.08692828e-04 6.78398646e-04</_>
    <_>
      5.19859731e-01 7.36209154e-02 1.03085101e-01 2.79141311e-02
      1.46023522e-03 7.47343106e-03 3.31484247e-04</_>
    <_>
      4.79894787e-01 5.35502806e-02 6.99805915e-02 1.91372484e-02
      6.46390661e-04 4.39785700e-03 2.69542681e-04</_>
    <_>
      6.80641174e-01 1.10894129e-01 2.30972797e-01 3.38157266e-02
      2.60603405e-03 1.06407991e-02 1.46285153e-03</_>
    <_>
      7.07230151e-01 1.18007034e-01 2.41384313e-01 5.34917042e-02
      5.58175286e-03 1.67759694e-02 2.40626629e-03</_>
    <_>
      6.99440241e-01 3.05385739e-02 2.06453633e-02 1.27235940e-02
      -2.05206481e-04 -8.75321915e-04 2.03971504e-05</_>
    <_>
      5.22248685e-01 5.06015234e-02 1.13480605e-01 2.33028308e-02
      9.80640762e-04 3.90386768e-03 6.88709959e-04</_>
    <_>
      5.41796148e-01 4.35380153e-02 7.49889314e-02 2.83517689e-03
      2.87659695e-05 -1.33916736e-04 -2.96900926e-05</_>
    <_>
      8.10057700e-01 3.94765437e-02 2.09823251e-01 8.66733119e-03
      -3.67102941e-04 1.38880976e-03 4.30582113e-05</_>
    <_>
      5.19156158e-01 1.61824673e-02 5.22177815e-02 3.75419925e-03
      3.16137193e-05 3.76063545e-04 -4.19941134e-05</_>
    <_>
      6.14460230e-01 1.76170394e-01 1.22165859e-01 3.72179970e-02
      2.33773934e-03 1.54911317e-02 9.12723306e-04</_>
    <_>
      5.07692099e-01 1.26255378e-02 9.69968438e-02 5.97462943e-03
      1.41342418e-04 6.55878393e-04 -2.66267998e-05</_>
    <_>
      7.40174472e-01 7.30825812e-02 8.47352296e-02 1.97860729e-02
      7.09574670e-04 5.23566036e-03 -3.90979345e-04</_>
    <_>
      5.97393274e-01 8.34101737e-02 1.83914736e-01 2.87377276e-02
      1.75865949e-03 7.48542324e-03 1.12783490e-03</_>
    <_>
      6.59459949e-01 2.20758915e-02 1.87570333e-01 1.37636038e-02
      4.94184205e-04 2.02181493e-03 -4.94813314e-04</_>
    <_>
      8.34879577e-01 1.53377801e-01 5.68892956e-01 6.19379431e-02
      7.43258512e-03 1.50222695e-02 -8.94053094e-03</_>
    <_>
      5.49802244e-01 1.89326853e-02 1.10672228e-02 1.35941114e-02
      1.65969523e-05 1.86551397e-03 -1.65914156e-04</_>
    <_>
      5.84548116e-01 4.07959446e-02 8.53144526e-02 1.45614166e-02
      1.50817417e-04 1.82526291e-03 4.90576029e-04</_>
    <_>
      7.19423532e-01 2.51260102e-01 1.59512475e-01 7.64938667e-02
      8.31858907e-03 3.70669700e-02 1.48229313e-03</_>
    <_>
      5.59381723e-01 5.81847616e-02 8.89627859e-02 1.19922059e-02
      3.31351010e-04 2.86392542e-03 2.08889585e-04</_>
    <_>
      8.29977632e-01 3.24764431e-01 2.19162837e-01 1.80295650e-02
      -2.40770052e-04 -1.75964180e-03 -1.10747281e-03</_>
    <_>
      7.32038081e-01 3.42004925e-01 1.70057654e-01 8.66171420e-02
      1.05083482e-02 4.86138649e-02 -2.93565099e-04</_>
    <_>
      4.57519025e-01 8.21101218e-02 2.55377553e-02 8.70308001e-03
      1.17819691e-04 2.41048820e-03 -5.43422320e-05</_>
    <_>
      1.25176430e+00 9.08163965e-01 8.00945699e-01 1.63794428e-01
      5.84112257e-02 1.48352712e-01 -1.03820311e-02</_>
    <_>
      6.67214096e-01 2.96994537e-01 7.52972737e-02 1.67555101e-02
      5.01133036e-04 4.09303559e-03 -3.21043073e-04</_>
    <_>
      5.09027779e-01 8.71563405e-02 2.15091538e-02 4.84679407e-03
      4.94834640e-05 1.36512832e-03 6.13985662e-07</_>
    <_>
      1.67890656e+00 2.06331104e-01 1.74255741e+00 2.21703425e-02
      -2.29984958e-04 2.87737674e-03 4.35157446e-03</_>
    <_>
      7.38530695e-01 8.53127763e-02 1.78139925e-01 6.33277223e-02
      6.66316738e-03 1.15621304e-02 -9.18868871e-04</_>
    <_>
      1.00028729e+00 3.98117185e-01 3.42535406e-01 5.44489883e-02
      5.05087059e-03 3.64901149e-03 -5.45731746e-03</_>
    <_>
      4.02855098e-01 7.12667999e-04 2.01355238e-02 9.64847219e-04
      -3.24930215e-06 -1.14544882e-05 2.74369654e-06</_>
    <_>
      4.66090143e-01 1.74950704e-01 1.60509795e-02 9.22212284e-03
      1.12153226e-04 3.68551910e-03 -3.27743282e-06</_>
    <_>
      4.49229687e-01 9.28719714e-02 7.25941919e-03 4.49143117e-03
      2.42572605e-05 1.36859762e-03 -8.32635214e-06</_>
    <_>
      1.15708888e+00 4.51252669e-01 4.23767090e-01 2.89407391e-02
      -2.62521463e-03 -9.42255650e-03 -1.83855230e-03</_>
    <_>
      6.14059806e-01 4.73319255e-02 9.15972590e-02 2.73729470e-02
      6.52418414e-04 5.80828683e-03 -1.20540685e-03</_>
    <_>
      1.26311088e+00 2.83880323e-01 3.82349081e-03 1.45264510e-02
      1.07927583e-04 -1.93880673e-03 8.48135096e-06</_>
    <_>
      5.36021590e-01 2.43935809e-02 1.14938207e-01 1.21005699e-02
      4.35940921e-04 1.88942952e-03 1.16637602e-04</_>
    <_>
      4.57277268e-01 2.01288611e-02 1.61124431e-02 9.17489454e-03
      9.07628782e-05 1.16477720e-03 -6.48554706e-05</_>
    <_>
      6.71268523e-01 1.16367247e-02 1.53691292e-01 3.99559140e-02
      3.05813295e-03 4.07102937e-03 -6.71994931e-04</_>
    <_>
      4.19572800e-01 8.35106522e-03 2.47376524e-02 2.01851455e-03
      -3.73014154e-06 -1.41291574e-04 1.37671477e-05</_>
    <_>
      4.38596129e-01 7.83053692e-03 6.40595183e-02 1.06466899e-03
      8.63344303e-06 6.85581836e-05 1.66499160e-06</_>
    <_>
      7.32739091e-01 6.10617548e-02 1.00384708e-02 2.09640968e-03
      -8.14862506e-06 3.92208633e-04 5.10785321e-06</_>
    <_>
      6.87546074e-01 1.17319599e-01 1.70627341e-01 3.53390574e-02
      2.73504388e-03 1.17590772e-02 2.23286974e-04</_>
    <_>
      5.07844508e-01 4.09094952e-02 7.31726810e-02 9.79853515e-03
      2.55386141e-04 1.90624991e-03 -6.01381180e-05</_>
    <_>
      1.02061141e+00 4.45864052e-01 6.05114698e-01 4.25538160e-02
      2.93471105e-03 -2.67542317e-03 -6.16572471e-03</_>
    <_>
      4.63082135e-01 1.91786867e-02 1.96647979e-02 2.04014517e-02
      3.76284501e-04 2.48863897e-03 1.59352319e-04</_>
    <_>
      6.37013614e-01 9.81652066e-02 1.14187554e-01 4.05342020e-02
      2.74194917e-03 1.22315371e-02 2.94011174e-04</_>
    <_>
      5.97895384e-01 2.62393475e-01 1.20956041e-02 2.40038754e-03
      1.08649429e-05 7.36405840e-04 -7.01738327e-06</_>
    <_>
      1.01553535e+00 6.24425113e-02 5.54676414e-01 1.01678362e-02
      9.90870612e-05 4.99815680e-04 7.57137954e-04</_>
    <_>
      6.26380980e-01 1.47561967e-01 9.34405178e-02 4.48732525e-02
      2.88298842e-03 1.60798822e-02 3.62489518e-04</_>
    <_>
      7.51779377e-01 2.58582234e-01 5.15515218e-03 1.73298572e-03
      3.68521069e-06 2.13643565e-04 -3.63999743e-06</_>
    <_>
      6.97491765e-01 1.63210616e-01 1.15353987e-01 6.06840663e-02
      4.31719935e-03 2.35361885e-02 2.67212070e-03</_>
    <_>
      1.08599079e+00 7.03867018e-01 3.53452981e-01 1.26266703e-01
      2.55002677e-02 7.98149928e-02 -7.82779884e-03</_>
    <_>
      6.14179671e-01 1.00825608e-01 1.56658798e-01 6.39136955e-02
      6.24021376e-03 1.98971368e-02 1.40035176e-03</_>
    <_>
      3.55955571e-01 1.49389561e-02 2.19816193e-02 5.01184212e-03
      3.52463285e-05 3.25547706e-04 3.90508430e-05</_>
    <_>
      9.86146986e-01 4.55107689e-01 2.85266135e-02 5.92021784e-03
      7.27551815e-05 2.63335230e-03 2.50177327e-05</_>
    <_>
      5.87430000e-01 2.17388179e-02 1.06591843e-01 2.10936554e-03
      4.87147281e-06 9.49309324e-05 3.12519151e-05</_>
    <_>
      2.44710386e-01 4.87013534e-03 4.09506634e-03 3.61002254e-04
      3.36070713e-07 2.42728693e-05 2.82340380e-07</_>
    <_>
      2.68211871e-01 1.79871228e-02 1.13692856e-03 5.30802863e-05
      6.95945176e-11 1.51476206e-06 1.30394806e-08</_>
    <_>
      2.64506936e-01 3.13182524e-03 7.92759564e-03 9.56750882e-05
      7.22696569e-08 -7.11778284e-07 4.14723154e-08</_>
    <_>
      1.95618376e-01 1.98265654e-03 1.02624123e-03 6.08885921e-06
      -1.33474579e-10 -9.18839760e-08 4.62436839e-10</_>
    <_>
      2.68852204e-01 6.62187533e-03 9.87651665e-03 3.31125193e-04
      5.50240088e-07 2.66427342e-05 -2.36244020e-07</_>
    <_>
      8.50034535e-01 2.07883358e-01 5.08483611e-02 6.00749394e-03
      9.56061558e-05 1.87166140e-03 -4.34040849e-05</_>
    <_>
      5.07395029e-01 1.31293684e-01 4.19431888e-02 3.17443386e-02
      1.15458504e-03 1.12153329e-02 -9.29969465e-05</_>
    <_>
      1.24405575e+00 4.65738922e-01 3.69109124e-01 5.79823069e-02
      3.92932957e-03 3.17209959e-02 -7.51745375e-03</_>
    <_>
      4.49559748e-01 9.24656987e-02 6.52236538e-03 1.12794852e-03
      -2.65729750e-06 -3.42907122e-04 -1.51614836e-06</_>
    <_>
      7.52662420e-01 7.44442269e-02 2.09835842e-01 2.91584320e-02
      1.59280072e-03 7.89846759e-03 -1.63248507e-03</_>
    <_>
      5.69374561e-01 1.16893493e-01 2.35758978e-03 1.99813265e-02
      -1.98322014e-05 6.74918201e-03 -1.35700495e-04</_>
    <_>
      4.99191284e-01 1.22502364e-01 1.54949967e-02 1.31315188e-02
      1.86848774e-04 4.48800204e-03 1.31809238e-05</_>
    <_>
      4.66409266e-01 7.82451481e-02 4.08236980e-02 5.01935650e-03
      -3.08240014e-05 -3.45396576e-04 6.49025242e-05</_>
    <_>
      6.47232950e-01 1.23233162e-01 2.14826047e-01 2.57477593e-02
      1.84859033e-03 7.80508667e-03 -4.99666086e-04</_>
    <_>
      5.30092001e-01 8.67856145e-02 4.22543399e-02 4.09261975e-03
      -3.02921435e-05 -8.18303844e-04 -4.44848265e-05</_>
    <_>
      4.77049619e-01 6.27061874e-02 1.90454349e-02 1.44595159e-02
      2.38674562e-04 3.17478552e-03 -2.47358566e-05</_>
    <_>
      4.21077371e-01 5.20800427e-02 2.35954695e-03 1.89047935e-03
      3.38490463e-06 4.31403983e-04 2.11765905e-06</_>
    <_>
      5.80818534e-01 1.94313049e-01 8.31084978e-03 7.79395504e-03
      5.91325879e-05 3.18821263e-03 -2.09309583e-05</_>
    <_>
      5.46856642e-01 1.18469663e-01 3.46462196e-03 7.57773034e-03
      3.70813541e-05 2.52315751e-03 -1.15121056e-05</_>
    <_>
      9.73679423e-01 1.31666571e-01 5.04594445e-01 1.15479408e-02
      4.41334763e-04 -3.37477750e-03 7.63076940e-04</_>
    <_>
      2.51530439e-01 1.49826077e-03 9.84237529e-03 1.58440322e-03
      3.39357666e-06 1.44259157e-05 -5.25647374e-06</_>
    <_>
      6.48894370e-01 4.04405594e-02 1.44517496e-01 1.05895605e-02
      -3.11099982e-04 -1.10357045e-03 -2.73553247e-04</_>
    <_>
      7.63808727e-01 1.87636595e-02 1.49991050e-01 2.66669551e-03
      4.86868594e-05 1.63590958e-05 -2.17705510e-05</_>
    <_>
      5.99770427e-01 2.04151351e-04 1.02644293e-02 1.15412977e-02
      -6.56955599e-05 1.37582858e-04 1.07069100e-04</_>
    <_>
      4.60898280e-01 9.51840356e-03 3.44964005e-02 6.05502806e-04
      -2.76411515e-06 -1.25342160e-06 1.33374073e-07</_>
    <_>
      7.15267181e-01 1.73263270e-02 6.56428635e-02 3.98780592e-03
      -6.37871417e-05 3.74731608e-04 9.69733082e-06</_>
    <_>
      7.54346371e-01 1.25216410e-01 2.56198913e-01 4.19153087e-02
      1.97686371e-03 1.13305775e-02 3.86764528e-03</_>
    <_>
      6.49090290e-01 2.39180471e-03 1.15084685e-01 2.17367541e-02
      -8.18470784e-04 -7.86424673e-04 7.15585425e-04</_>
    <_>
      4.09970373e-01 6.32348005e-03 1.29572656e-02 7.80312286e-04
      1.37606730e-06 4.91934989e-05 -2.06463642e-06</_>
    <_>
      3.20669860e-01 8.83463304e-03 1.54049983e-02 3.63831432e-03
      -9.03428258e-07 4.28375824e-05 -2.72233865e-05</_>
    <_>
      6.33226633e-01 1.50626034e-01 1.25264511e-01 4.13929485e-03
      5.80806009e-05 1.45433878e-03 -7.42335178e-05</_>
    <_>
      6.99120939e-01 1.06394710e-02 1.25859782e-01 3.02271033e-03
      -3.35035511e-05 -9.31104296e-05 4.85127457e-05</_>
    <_>
      7.48138428e-01 9.86808240e-02 1.33120224e-01 1.47063825e-02
      2.98513332e-04 4.42174124e-03 5.78187057e-04</_>
    <_>
      7.83015728e-01 1.46939665e-01 3.01761329e-01 6.42420501e-02
      8.62566195e-03 2.34294105e-02 2.36723898e-03</_>
    <_>
      2.91925639e-01 3.42293717e-02 6.82318211e-03 4.65459801e-04
      -5.00537112e-07 -6.00701169e-05 -6.61463503e-07</_>
    <_>
      2.50099242e-01 1.56450123e-02 9.38473921e-03 2.27785931e-04
      -3.27235739e-07 -2.82459132e-05 6.19272811e-08</_>
    <_>
      7.96252847e-01 4.65045422e-02 2.58516699e-01 4.62475345e-02
      3.29818483e-03 7.09841400e-03 3.83319310e-03</_>
    <_>
      7.55972385e-01 1.14566065e-01 3.57888490e-01 1.62707306e-02
      -2.90575612e-04 -2.59874482e-03 1.20712712e-03</_>
    <_>
      4.39777672e-01 2.95400396e-02 1.63231753e-02 3.92809743e-03
      -3.07445443e-05 6.70708308e-04 -6.64277468e-06</_>
    <_>
      2.19333500e-01 8.39100033e-03 9.39425663e-04 5.72978519e-04
      4.17341624e-07 4.78495349e-05 5.04242337e-08</_>
    <_>
      2.89223880e-01 3.70115298e-03 1.72813088e-02 1.22815371e-03
      1.24565577e-06 -1.73295794e-05 -5.51923540e-06</_>
    <_>
      4.23532873e-01 1.01395249e-02 5.58620282e-02 3.61004821e-03
      3.58884427e-05 2.82894849e-04 3.66087843e-05</_>
    <_>
      7.07633555e-01 8.59467126e-03 2.13591456e-01 1.39364228e-03
      -2.39782148e-05 1.23485224e-04 -1.78651555e-06</_>
    <_>
      6.77967608e-01 1.85409144e-01 1.35492995e-01 6.60308730e-03
      1.03773287e-04 2.15178984e-03 -1.68046085e-04</_>
    <_>
      4.85587001e-01 1.29670147e-02 7.38656074e-02 6.48894208e-03
      1.41290715e-04 6.10383751e-04 -1.47960855e-05</_>
    <_>
      6.79321408e-01 5.91859259e-02 9.39002261e-03 3.18315043e-03
      -1.26363448e-05 7.22810568e-04 -1.19657907e-05</_>
    <_>
      4.12765175e-01 1.26887597e-02 6.24737851e-02 4.68035974e-03
      8.00315538e-05 5.20795293e-04 -4.37626085e-07</_>
    <_>
      3.78260136e-01 2.75809262e-02 1.76069289e-02 2.68788513e-04
      -1.10180283e-08 1.27616941e-05 5.84629504e-07</_>
    <_>
      7.52653539e-01 9.88470670e-03 2.41106033e-01 3.07483412e-03
      8.35508399e-05 2.26293632e-04 5.34161018e-06</_>
    <_>
      3.14843267e-01 3.56175471e-04 1.15835955e-02 7.89435522e-04
      -2.02880983e-06 1.15910761e-05 1.25811812e-06</_>
    <_>
      9.34236526e-01 3.57627481e-01 7.48431601e-04 4.24167737e-02
      -6.42825325e-05 2.50269081e-02 2.30184072e-04</_>
    <_>
      8.63568783e-01 2.28339210e-01 2.93399841e-01 1.17771409e-01
      2.18736269e-02 5.62765300e-02 -9.02015774e-04</_>
    <_>
      7.19409049e-01 3.20049748e-02 1.46388501e-01 4.92893043e-04
      2.74631770e-06 -4.10917301e-06 -3.16023056e-06</_>
    <_>
      3.52108538e-01 2.03305786e-03 3.10368352e-02 2.17221747e-03
      9.18843489e-06 6.48012356e-05 1.52869234e-05</_>
    <_>
      4.50609654e-01 6.87323511e-03 5.89467324e-02 2.75624194e-03
      2.16366461e-05 7.58932802e-05 2.76790506e-05</_>
    <_>
      4.60039109e-01 2.65946891e-02 4.36373428e-02 9.89814848e-03
      1.72217318e-04 8.86575668e-04 1.12510934e-04</_>
    <_>
      4.21896368e-01 4.19476219e-02 3.81617174e-02 4.88039060e-03
      5.50649456e-05 6.13281678e-04 -3.74680312e-05</_>
    <_>
      8.36537898e-01 1.16266385e-01 2.99142271e-01 1.80522900e-03
      3.82165490e-05 -2.84398975e-05 1.73014923e-05</_>
    <_>
      4.98923093e-01 6.81780651e-02 1.19286701e-02 2.75258464e-03
      2.16290141e-06 6.31721341e-04 -1.56237329e-05</_>
    <_>
      6.75803363e-01 1.61555633e-01 2.13287711e-01 7.89564699e-02
      9.11171827e-03 2.22245771e-02 -4.68636397e-03</_>
    <_>
      6.09162986e-01 4.11002450e-02 1.38282493e-01 4.26660199e-03
      -6.34383396e-05 -4.70475352e-04 8.19500201e-05</_>
    <_>
      4.69243467e-01 1.04222903e-02 3.79098319e-02 2.89319549e-03
      -2.78748084e-05 -2.88726471e-04 -1.18779180e-05</_>
    <_>
      7.85616875e-01 1.05474137e-01 1.24279456e-03 1.29912719e-02
      6.91193782e-06 1.79855933e-03 5.17411754e-05</_>
    <_>
      7.19063640e-01 1.69108853e-01 5.94965778e-02 9.87527240e-03
      -6.39205537e-05 3.96491168e-03 -2.30677557e-04</_>
    <_>
      4.43568587e-01 4.67891321e-02 3.28996144e-02 3.18850926e-03
      3.08188501e-05 6.70982292e-04 1.08019103e-05</_>
    <_>
      5.24091184e-01 8.97186715e-03 9.05275196e-02 6.63815020e-03
      7.67238307e-05 6.26994995e-04 1.43505007e-04</_>
    <_>
      4.51872647e-01 7.13547245e-02 3.21236737e-02 1.00583106e-03
      -3.94839299e-06 -6.90098750e-05 4.13510588e-06</_>
    <_>
      3.95747542e-01 1.15542989e-02 4.87285480e-02 2.81246472e-03
      3.14108038e-05 2.87520146e-04 -9.86913710e-06</_>
    <_>
      9.50737536e-01 3.67966682e-01 2.55978722e-02 1.25915278e-02
      2.20523201e-04 7.49636535e-03 4.97158726e-05</_>
    <_>
      8.94433439e-01 1.15504839e-01 1.92470580e-01 5.00280894e-02
      -1.82431331e-03 1.64635703e-02 -4.55755182e-03</_>
    <_>
      8.95981371e-01 2.61415809e-01 2.14132473e-01 2.95640697e-04
      2.32866705e-06 -1.51156230e-04 3.32406870e-07</_>
    <_>
      3.98800254e-01 4.28314880e-02 2.39352044e-02 1.14120706e-03
      -5.78173422e-06 -2.01011033e-04 1.46470768e-06</_>
    <_>
      1.43084776e+00 6.55878067e-01 6.94346571e+00 4.33248854e+00
      2.35857887e+01 2.94924593e+00 -2.89353323e+00</_>
    <_>
      4.24666554e-01 5.64151928e-02 3.26335989e-02 7.70708360e-03
      1.21531579e-04 1.42270001e-03 -1.30209828e-05</_>
    <_>
      3.80537570e-01 3.37909684e-02 2.38358248e-02 1.45786128e-03
      -6.73764589e-06 -2.23272640e-04 -5.33469256e-06</_>
    <_>
      4.74030674e-01 9.42868218e-02 4.67896722e-02 3.73029336e-03
      1.39776221e-05 7.11065804e-05 4.72583815e-05</_>
    <_>
      4.50919807e-01 4.24227640e-02 5.12344800e-02 1.45186449e-03
      -1.23653426e-05 -2.97950406e-04 -1.97390705e-06</_>
    <_>
      2.19884261e-01 2.53909361e-03 4.04387293e-03 3.84665298e-04
      1.28067896e-07 2.43403338e-06 -4.62349931e-07</_>
    <_>
      3.49517524e-01 2.85423808e-02 2.21009497e-02 2.19149119e-03
      9.95577830e-06 1.68342143e-04 -1.15539360e-05</_>
    <_>
      3.24693471e-01 2.89000738e-02 1.54368598e-02 4.61473828e-03
      3.89492998e-05 6.68329303e-04 5.32734070e-08</_>
    <_>
      5.20524502e-01 6.26238212e-02 6.19600080e-02 1.54667092e-03
      -8.83257326e-06 -3.40220635e-04 -1.22977017e-05</_>
    <_>
      6.00825012e-01 1.52714610e-01 3.89657058e-02 6.66116644e-03
      1.05009189e-04 2.25997157e-03 -2.21339778e-05</_>
    <_>
      6.41548753e-01 2.48764947e-01 5.78992181e-02 6.43759686e-03
      1.07659871e-04 3.10319522e-03 -6.20995124e-05</_>
    <_>
      8.79356980e-01 9.25669596e-02 8.42041075e-01 1.14264004e-01
      3.22649963e-02 3.28378454e-02 -1.46689527e-02</_>
    <_>
      4.81578380e-01 1.33336633e-02 8.28417465e-02 1.05015701e-02
      7.44194476e-05 2.10657254e-05 3.00673302e-04</_>
    <_>
      4.79439974e-01 3.20336297e-02 6.11264557e-02 1.15371458e-02
      1.42302510e-04 1.25618489e-03 2.71329074e-04</_>
    <_>
      3.84812951e-01 2.37240810e-02 1.70444287e-02 2.43924884e-03
      1.52796692e-05 2.59967375e-04 3.72878276e-06</_>
    <_>
      5.58591783e-01 2.17445772e-02 2.72009708e-02 1.10052747e-03
      5.56679834e-06 1.60077019e-04 2.29507100e-06</_>
    <_>
      6.65552616e-01 2.22919807e-02 2.87565380e-01 7.22050609e-04
      4.48418905e-06 1.77138627e-05 -9.38855464e-06</_>
    <_>
      5.59927285e-01 8.76321569e-02 1.59965873e-01 3.85864712e-02
      2.65857670e-03 9.07743257e-03 1.45682169e-03</_>
    <_>
      4.11228776e-01 1.33232987e-02 1.12788333e-02 4.10761777e-03
      7.27030647e-06 3.42764397e-04 2.69968878e-05</_>
    <_>
      4.84694213e-01 1.30109191e-02 5.64498007e-02 4.93344991e-03
      -7.13853005e-05 -5.60736225e-04 4.10163557e-05</_>
    <_>
      5.88146150e-01 8.90149102e-02 6.03303574e-02 2.22579972e-03
      -1.98354501e-05 1.71760286e-04 -1.64869380e-05</_>
    <_>
      3.49817097e-01 9.85845923e-03 6.60348684e-03 7.64399068e-04
      -1.63078596e-06 7.09282249e-05 -5.38458835e-07</_>
    <_>
      7.91255116e-01 2.09497869e-01 1.33709237e-01 1.64539018e-03
      1.83041248e-05 9.45261127e-05 -1.61424105e-05</_>
    <_>
      1.14165068e+00 9.90107805e-02 1.39197779e+00 1.00197360e-01
      -1.71423256e-02 -2.16027293e-02 -3.32622379e-02</_>
    <_>
      7.94375241e-01 1.97696462e-01 6.73857853e-02 1.13034761e-03
      9.59634690e-06 2.56280036e-04 2.28705926e-06</_>
    <_>
      4.72652167e-01 4.51933555e-02 3.08765955e-02 4.12932923e-03
      3.94803174e-05 8.64158326e-04 2.48061860e-05</_>
    <_>
      5.82941294e-01 8.27099234e-02 5.01245447e-02 6.93850871e-03
      1.28659667e-04 1.83551898e-03 1.37946163e-05</_>
    <_>
      5.57676196e-01 7.30899647e-02 6.08018935e-02 1.28743639e-02
      3.53247684e-04 3.43293883e-03 7.04429476e-05</_>
    <_>
      5.47502935e-01 6.08365871e-02 5.50363623e-02 4.81188390e-03
      6.67489512e-05 4.29462030e-04 -4.09448257e-05</_>
    <_>
      9.64469135e-01 4.98276532e-01 3.18107933e-01 3.60581316e-02
      2.17621424e-03 5.23705734e-03 -3.19025852e-03</_>
    <_>
      7.27995455e-01 4.52866107e-01 2.17663720e-02 9.04465187e-03
      1.22240788e-04 4.53294534e-03 -3.40913612e-05</_>
    <_>
      5.55903316e-01 4.28596288e-02 8.14738423e-02 1.82800554e-03
      2.13171515e-05 3.02003697e-04 -6.57721193e-06</_>
    <_>
      5.71408510e-01 2.20275838e-02 1.38819337e-01 8.45040078e-04
      2.30041110e-06 4.67279388e-05 -8.85871486e-06</_>
    <_>
      8.90500784e-01 2.09452033e-01 5.39335608e-01 2.32839305e-02
      -2.50914181e-03 -9.76015907e-03 7.15779315e-04</_>
    <_>
      7.13607132e-01 2.65957355e-01 8.35864991e-02 2.92890170e-03
      -2.29358484e-05 -1.35236431e-03 3.96749019e-05</_>
    <_>
      5.62557995e-01 7.09083453e-02 8.25258195e-02 6.42832462e-03
      1.44606835e-04 1.70351064e-03 3.17965059e-05</_>
    <_>
      7.92196214e-01 1.42245978e-01 2.20385060e-01 8.15920252e-03
      3.06988659e-04 2.90221185e-03 1.59582400e-04</_>
    <_>
      3.75738889e-01 2.58545522e-02 2.89223772e-02 5.28531801e-03
      6.53425086e-05 7.91606552e-04 -7.40388373e-07</_>
    <_>
      1.41013753e+00 1.96635827e-01 2.82260537e-01 1.06215477e-02
      1.33173875e-04 9.41908860e-04 5.66123519e-04</_>
    <_>
      4.86607432e-01 6.05002567e-02 4.35870066e-02 4.41270153e-04
      1.25586041e-06 3.93937044e-05 1.47240530e-06</_>
    <_>
      4.07181382e-01 3.74613106e-02 2.59113591e-02 3.46553774e-04
      -6.08570417e-07 -6.28257767e-05 -8.41485132e-07</_>
    <_>
      7.49670386e-01 7.94691313e-03 4.19085771e-01 1.56149678e-02
      -1.53091256e-04 1.02228392e-03 1.25386252e-03</_>
    <_>
      4.86833811e-01 5.10796234e-02 7.61409700e-02 2.07722257e-03
      1.75557634e-05 1.93717482e-04 -1.93452834e-05</_>
    <_>
      2.24076241e-01 4.55252780e-03 4.37596580e-03 8.96064332e-04
      1.09883547e-06 -3.06286120e-06 -1.39318774e-06</_>
    <_>
      9.27763939e-01 1.23872250e-01 1.41091868e-01 1.64688919e-02
      3.56197474e-04 2.50468007e-03 7.09470012e-04</_>
    <_>
      2.93370903e-01 3.44598182e-02 4.93242359e-03 4.50001942e-04
      -6.69248095e-07 -6.43361491e-05 -3.97481692e-08</_>
    <_>
      7.81460881e-01 2.53811896e-01 3.22341919e-02 2.14088731e-03
      -1.02304296e-06 5.57928346e-04 1.77553575e-05</_>
    <_>
      4.59209949e-01 1.07934430e-01 1.15673374e-02 1.93868205e-03
      8.45144677e-06 4.56113863e-04 -3.58589023e-06</_>
    <_>
      3.61984372e-01 1.37400199e-02 4.71622823e-03 2.75584799e-03
      -3.43581132e-06 -2.39035380e-05 -9.32228886e-06</_>
    <_>
      5.71833968e-01 4.13123295e-02 1.71365723e-01 3.07767037e-02
      2.11999286e-03 6.25364250e-03 -7.07997708e-04</_>
    <_>
      7.32848406e-01 1.77665472e-01 1.95393085e-01 2.86161955e-02
      2.11628573e-03 1.01648495e-02 3.16327321e-04</_>
    <_>
      8.74656320e-01 2.26615593e-01 3.76834244e-01 4.06891517e-02
      4.70174570e-03 1.27511835e-02 -1.81083346e-03</_>
    <_>
      8.63582492e-01 3.49101663e-01 8.36566985e-02 2.83313561e-02
      1.37868046e-03 1.62782334e-02 4.05549072e-05</_>
    <_>
      6.39044225e-01 1.97866008e-01 8.98425952e-02 7.55539909e-03
      6.41401784e-05 -8.69252195e-04 -1.86103469e-04</_>
    <_>
      7.86429107e-01 1.42111748e-01 1.75554484e-01 1.37990331e-02
      6.49001508e-04 5.17112948e-03 2.00174603e-04</_>
    <_>
      6.05698705e-01 2.04859912e-01 1.62857268e-02 8.23439739e-04
      -2.84043676e-06 -2.98117433e-04 -1.01233513e-06</_>
    <_>
      8.02659571e-01 3.43122452e-01 1.31409034e-01 1.17161078e-02
      3.54178192e-04 1.67486153e-03 -2.93077988e-04</_>
    <_>
      4.37604249e-01 9.03698877e-02 2.35195216e-02 2.25311937e-03
      1.50826127e-05 6.50938717e-04 -6.44457941e-06</_>
    <_>
      5.24684072e-01 1.57376388e-04 8.08061361e-02 2.78450618e-03
      3.89388006e-05 -2.13494204e-05 -1.51109844e-05</_>
    <_>
      7.20010161e-01 2.59832833e-02 1.95453286e-01 3.88849378e-02
      2.68888846e-03 6.06638379e-03 -2.06437754e-03</_>
    <_>
      3.60514551e-01 1.81524735e-02 2.79360879e-02 3.29220039e-03
      3.15566940e-05 3.74664000e-04 -1.00624561e-06</_>
    <_>
      9.08780217e-01 8.42055082e-02 2.12669387e-01 1.00464784e-02
      4.51790635e-04 1.88211130e-03 -1.07395324e-04</_>
    <_>
      8.82043242e-01 3.07610989e-01 1.53410099e-02 1.32357376e-02
      -1.83574433e-04 6.90351939e-03 -4.32621855e-05</_>
    <_>
      3.34586620e-01 4.63035330e-02 2.59203147e-02 1.17019294e-02
      1.97377667e-04 2.50882283e-03 -5.07632649e-05</_>
    <_>
      4.89650935e-01 3.29694711e-02 3.22957784e-02 1.83696277e-03
      7.47810418e-06 2.49015895e-04 1.20112445e-05</_>
    <_>
      6.64868653e-01 1.87736496e-01 1.30880848e-02 2.78268773e-02
      5.28651348e-04 1.19808968e-02 -5.04083182e-05</_>
    <_>
      4.53603178e-01 2.19981968e-02 1.47506120e-02 9.84918047e-03
      6.08178270e-05 8.71999422e-04 1.01953003e-04</_>
    <_>
      5.35776615e-01 6.02189973e-02 6.05608225e-02 1.75828915e-02
      5.44234295e-04 4.17247508e-03 1.81689713e-04</_>
    <_>
      4.79733258e-01 4.84361649e-02 1.50205176e-02 6.64325338e-03
      5.84423869e-05 1.46189809e-03 3.14369972e-05</_>
    <_>
      4.36974555e-01 5.13548180e-02 1.74536891e-02 2.32124235e-03
      1.31629913e-05 4.98732261e-04 6.71067073e-06</_>
    <_>
      2.41151437e-01 1.04128849e-03 4.49331892e-05 6.47393812e-04
      -9.06749307e-08 2.01823404e-05 6.30079242e-08</_>
    <_>
      4.66600031e-01 5.81717901e-02 3.01525742e-02 1.00407591e-02
      1.69267034e-04 2.42169830e-03 4.32602465e-05</_>
    <_>
      4.55499232e-01 5.78094907e-02 1.91226753e-03 1.28420279e-03
      -2.01244802e-06 2.73128506e-04 1.25629351e-09</_>
    <_>
      4.97541338e-01 3.95050347e-02 6.54280186e-02 1.00972727e-02
      1.90736799e-04 1.58120063e-03 1.75998357e-04</_>
    <_>
      5.22960365e-01 7.50454962e-02 9.22212154e-02 2.89754160e-02
      1.42530282e-03 6.80453144e-03 4.60412935e-04</_>
    <_>
      4.98938352e-01 3.76937501e-02 6.12379424e-02 8.25608335e-03
      1.55141053e-04 1.13478361e-03 1.01948237e-04</_>
    <_>
      5.68300247e-01 2.90184580e-02 7.94372708e-02 1.15145911e-02
      2.12664876e-04 7.68825470e-04 2.75768456e-04</_>
    <_>
      4.94546026e-01 1.97416581e-02 3.64889987e-02 5.29310200e-03
      7.20496100e-05 7.41033698e-04 1.48338222e-05</_>
    <_>
      4.98469532e-01 3.22192349e-03 2.11456628e-03 1.70059945e-03
      -2.00962882e-06 8.77131024e-05 2.52215204e-06</_>
    <_>
      1.24975884e+00 5.95730364e-01 3.14103439e-02 1.69378951e-01
      1.22114783e-02 1.23546407e-01 1.87447923e-03</_>
    <_>
      6.93385780e-01 2.42551371e-01 1.22088261e-01 2.12267395e-02
      9.50288435e-04 6.55040378e-03 -5.14423766e-04</_>
    <_>
      4.37250137e-01 4.48808298e-02 4.49151546e-02 9.48113296e-03
      1.92396503e-04 1.84974412e-03 3.55490301e-05</_>
    <_>
      6.42841756e-01 2.26788938e-01 1.43813565e-01 1.17681390e-02
      -1.67933598e-04 -2.92169093e-03 4.54070221e-04</_>
    <_>
      5.38021266e-01 5.69982640e-03 1.57859117e-01 1.08027225e-03
      -4.27859550e-06 -6.50883885e-05 -1.34425090e-05</_>
    <_>
      1.03543973e+00 4.19925213e-01 7.32062291e-03 4.36896235e-02
      3.30118870e-04 2.77874526e-02 -7.08179141e-04</_>
    <_>
      5.71181834e-01 2.65293699e-02 6.69364408e-02 1.12677421e-02
      -1.16759009e-04 -2.15172797e-04 2.86574505e-04</_>
    <_>
      6.55128896e-01 2.63914675e-03 1.50028288e-01 6.24828460e-03
      -9.65739528e-05 2.63738417e-04 -1.65140314e-04</_>
    <_>
      2.22499669e-01 4.92688792e-04 1.29074659e-04 3.82619735e-04
      -2.39038602e-08 7.57267981e-06 -8.16007599e-08</_>
    <_>
      5.57253063e-01 3.39174159e-02 5.70180975e-02 2.59496481e-03
      -2.12438645e-05 -4.13254078e-04 -2.33460341e-05</_>
    <_>
      9.54760134e-01 1.17143579e-01 5.77202857e-01 5.68408743e-02
      -8.08486901e-03 -1.76619403e-02 -6.37464318e-03</_>
    <_>
      8.45626473e-01 8.76200721e-02 3.47877890e-01 2.00974904e-02
      -3.86603264e-04 1.83449418e-03 -1.63537683e-03</_>
    <_>
      5.56396902e-01 4.75530811e-02 5.59011027e-02 1.46717951e-02
      3.35814868e-04 3.18658119e-03 2.52545753e-04</_>
    <_>
      2.64984578e-01 1.96217131e-02 8.52198526e-03 1.82615931e-03
      7.20192884e-06 1.45331956e-04 -1.75946383e-07</_>
    <_>
      4.91914243e-01 1.73353888e-02 6.26726449e-02 7.73967989e-03
      1.32209834e-05 8.50967364e-04 -1.69946914e-04</_>
    <_>
      1.11140764e+00 3.25614542e-01 9.57019687e-01 1.10514171e-01
      2.99569834e-02 4.69978862e-02 -1.98574457e-02</_>
    <_>
      9.75366473e-01 6.37561232e-02 1.05167152e-02 2.65681371e-03
      5.48594790e-06 -6.69924426e-04 1.29278778e-05</_>
    <_>
      5.26441932e-01 2.44508758e-02 2.62036324e-02 3.48012545e-03
      -2.85167371e-05 5.43786911e-04 1.70659314e-05</_>
    <_>
      2.06603974e-01 3.64588486e-04 5.98636875e-03 3.21784391e-05
      1.38157876e-08 5.61526861e-07 2.93004909e-09</_>
    <_>
      4.27371681e-01 2.53138989e-02 2.98719369e-02 7.87257068e-06
      -2.69966449e-09 -1.23270581e-06 -2.69943778e-09</_>
    <_>
      4.97484922e-01 3.92009970e-03 5.94029725e-02 4.61584423e-03
      2.94126653e-06 1.07810301e-04 7.63763674e-05</_>
    <_>
      9.55194712e-01 1.07141100e-01 2.96490848e-01 6.97786547e-03
      1.58906012e-04 5.52239129e-04 2.74742721e-04</_>
    <_>
      5.55567741e-01 3.31720784e-02 4.03238945e-02 5.93505753e-03
      9.15801284e-05 1.07505964e-03 6.57791998e-06</_>
    <_>
      3.49817991e-01 5.36751840e-03 1.57217924e-02 1.86630769e-03
      -2.13255612e-06 -6.27311456e-05 9.88192369e-06</_>
    <_>
      4.75321591e-01 3.64424195e-03 5.52896671e-02 1.66622351e-03
      -1.31419520e-05 -9.46840883e-05 9.11348707e-06</_>
    <_>
      5.42255640e-01 1.38104618e-01 1.40152697e-03 8.72233140e-05
      2.47404195e-08 6.31404373e-06 -1.78310522e-08</_>
    <_>
      1.35531247e+00 2.61159003e-01 6.49622440e-01 4.77012724e-01
      1.14305206e-01 2.41067439e-01 2.39675522e-01</_>
    <_>
      7.79493451e-01 3.11045237e-02 4.01561230e-01 3.41382436e-03
      7.96988243e-05 5.74235921e-04 -9.81038465e-05</_>
    <_>
      5.62548518e-01 7.27008507e-02 7.12729022e-02 3.15760076e-03
      4.68099279e-05 4.43153374e-04 7.25894779e-06</_>
    <_>
      5.17159104e-01 1.64235421e-02 6.77840486e-02 1.57623307e-03
      -1.39495078e-05 1.89772050e-04 -8.41813016e-06</_>
    <_>
      4.42297786e-01 5.94600700e-02 3.06783784e-02 3.62196332e-03
      3.73702715e-05 8.41804314e-04 7.81989365e-06</_>
    <_>
      5.99634528e-01 7.52687976e-02 2.48469442e-01 1.79800019e-02
      -1.03716715e-03 -3.90349980e-03 6.07069873e-04</_>
    <_>
      4.22907799e-01 1.14958845e-02 8.23520403e-03 4.16613510e-03
      -1.35365872e-05 1.08676009e-04 2.03039563e-05</_>
    <_>
      4.94803131e-01 5.38136736e-02 5.89219145e-02 1.07383216e-02
      2.43816234e-04 2.48299469e-03 -1.16249117e-04</_>
    <_>
      7.16951430e-01 9.27341804e-02 2.50808597e-01 1.06101651e-02
      -2.61396810e-04 -1.41856703e-03 -4.80883522e-04</_>
    <_>
      7.03711987e-01 3.50932702e-02 2.48361602e-01 9.93661396e-03
      -2.81397108e-04 -6.20627776e-04 4.05566680e-04</_>
    <_>
      4.48824495e-01 4.55925018e-02 2.20289081e-02 1.43774599e-03
      8.07474044e-06 6.29351416e-05 5.17811372e-07</_>
    <_>
      1.96884239e+00 1.32277775e+00 2.25920126e-01 7.17834607e-02
      -1.18144264e-03 -6.88486397e-02 -9.06476192e-03</_>
    <_>
      5.15313745e-01 4.67865318e-02 8.24120864e-02 6.82389876e-03
      1.60247349e-04 1.27200875e-03 -2.25380354e-05</_>
    <_>
      4.68639970e-01 9.73913297e-02 7.48113636e-03 3.05487099e-03
      1.01616333e-05 9.46662272e-04 1.04890078e-05</_>
    <_>
      5.67880869e-01 4.72137295e-02 1.26267672e-01 1.20985089e-02
      2.80464767e-04 1.60584715e-03 3.80719983e-04</_>
    <_>
      1.19110024e+00 1.75203994e-01 4.26000863e-01 2.06609108e-02
      1.86173955e-03 5.97470952e-03 -5.39516914e-04</_>
    <_>
      5.61975479e-01 5.81455417e-02 5.38350604e-02 2.37255683e-03
      -1.58204421e-05 -4.84474935e-04 -2.16492645e-05</_>
    <_>
      5.58274269e-01 2.60883328e-02 7.34322518e-02 2.12601689e-03
      -2.61693222e-05 -2.41909816e-04 4.56210819e-06</_>
    <_>
      4.00042951e-01 2.62133274e-02 2.36659888e-02 5.31179132e-04
      -1.67329347e-06 -7.00531455e-05 8.64279343e-07</_>
    <_>
      3.37339997e-01 4.86054681e-02 1.98480375e-02 4.91910428e-03
      4.85924757e-05 8.49163625e-04 1.13661474e-06</_>
    <_>
      4.09809530e-01 3.58672952e-03 8.08062591e-03 5.26306499e-03
      -6.26001247e-06 2.84775742e-04 3.37469319e-05</_>
    <_>
      8.26618731e-01 8.92498270e-02 4.03868675e-01 2.17806660e-02
      1.91894511e-03 6.27586571e-03 7.00500095e-04</_>
    <_>
      7.49741435e-01 3.33937287e-01 2.17222035e-01 1.28491864e-01
      2.14115623e-02 7.16238990e-02 1.53767609e-03</_>
    <_>
      3.76508534e-01 2.13260185e-02 7.46480236e-03 2.42422666e-05
      -1.29082511e-09 1.28113140e-06 1.02315152e-08</_>
    <_>
      4.12440985e-01 2.62029078e-02 2.35923491e-02 7.36343535e-03
      4.71951389e-05 -4.37289185e-04 -8.48044147e-05</_>
    <_>
      3.45104396e-01 1.98129918e-02 6.27341913e-03 1.90514466e-03
      -3.04428596e-07 -1.75176494e-04 -6.57930013e-06</_>
    <_>
      3.26559335e-01 1.52866989e-02 1.03426224e-03 1.18669693e-03
      -1.23018049e-06 1.12430949e-04 -4.63766554e-07</_>
    <_>
      1.01764572e+00 1.97420925e-01 1.40794903e-01 6.95040170e-03
      1.85535901e-04 3.07758874e-03 -1.13356975e-04</_>
    <_>
      2.99031496e-01 1.92145091e-02 7.74341403e-04 3.54386342e-04
      -9.31708755e-08 8.20295554e-06 1.60570877e-07</_>
    <_>
      3.71511340e-01 4.88241687e-02 9.52231698e-03 6.11360883e-04
      1.47449623e-06 4.41141674e-05 -4.17600283e-08</_>
    <_>
      1.20560133e+00 8.85641992e-01 3.75144109e-02 2.14448408e-03
      -7.03717296e-06 -8.71054945e-04 1.79010676e-05</_>
    <_>
      3.18274170e-01 3.72123718e-02 1.13905070e-03 4.08048836e-05
      4.37098313e-09 -7.58957503e-06 7.63436692e-09</_>
    <_>
      3.14698964e-01 3.89671996e-02 8.26782431e-04 1.71636884e-06
      -1.29516753e-11 -3.16194189e-07 -6.33459188e-11</_>
    <_>
      3.70304108e-01 1.62216369e-02 1.07357986e-02 3.96944163e-03
      1.24114013e-05 1.81811774e-04 2.27468881e-05</_>
    <_>
      2.79250622e-01 1.13311373e-02 3.21592041e-03 9.27253917e-04
      1.34714142e-07 9.73094575e-05 1.59554168e-06</_>
    <_>
      3.76828045e-01 3.40457335e-02 2.52241027e-02 4.80253901e-03
      4.62671924e-05 8.77815008e-04 2.55609102e-05</_>
    <_>
      3.93336058e-01 4.95699793e-02 2.18138825e-02 1.68654602e-03
      6.00018984e-06 9.29365997e-05 -8.28522207e-06</_>
    <_>
      2.29408234e-01 7.96048157e-03 2.87649618e-03 4.71336418e-04
      4.46153820e-07 3.86516967e-06 3.19606045e-07</_>
    <_>
      3.79890501e-01 6.15421236e-02 1.45923058e-02 4.93609393e-03
      4.15318718e-05 1.08781806e-03 5.48557682e-06</_>
    <_>
      9.06154811e-01 2.11715605e-02 8.04937705e-02 1.97709557e-02
      7.06760271e-04 -2.52310163e-03 -3.50097864e-04</_>
    <_>
      4.68363941e-01 8.09137225e-02 1.83499679e-02 2.87845411e-04
      -1.80845063e-08 -9.11288316e-06 -6.61293541e-07</_>
    <_>
      3.39177698e-01 1.54922912e-02 5.16612362e-03 5.72561694e-04
      2.93258410e-07 -3.87791515e-05 9.40046050e-07</_>
    <_>
      4.61523056e-01 2.08052658e-02 5.58664277e-02 2.70104036e-03
      -7.62500713e-06 7.70489787e-05 3.22916349e-05</_>
    <_>
      4.99647915e-01 6.33582249e-02 4.62852791e-02 6.53505372e-03
      2.21692953e-05 -9.96175804e-04 1.11473666e-04</_>
    <_>
      2.47599006e-01 9.81814228e-03 1.14069497e-02 3.78572033e-04
      -4.64313985e-07 -4.41863995e-06 -6.35062804e-07</_>
    <_>
      4.42867994e-01 8.28432664e-02 4.35090065e-02 2.16582697e-02
      6.51580573e-04 6.00600243e-03 1.32179382e-04</_>
    <_>
      1.29816592e+00 2.97468692e-01 1.99410391e+00 7.90903330e-01
      9.28105533e-01 4.28345710e-01 3.53790164e-01</_>
    <_>
      7.98858941e-01 1.32713318e-02 1.86012581e-01 2.75591924e-03
      -2.32883158e-05 2.15611610e-04 -5.78892759e-05</_>
    <_>
      3.86354506e-01 2.01822631e-02 2.40460318e-02 1.76141690e-03
      9.12738778e-06 1.04154824e-04 -6.93550646e-06</_>
    <_>
      4.49344754e-01 7.13528395e-02 2.40507945e-02 5.00528188e-03
      5.46404735e-05 1.09419483e-03 -5.50503501e-06</_>
    <_>
      8.14277589e-01 4.87823449e-02 1.00495704e-01 5.21320244e-03
      1.04690589e-04 6.85020525e-04 5.72562931e-05</_>
    <_>
      5.02894104e-01 4.93125729e-02 7.42178485e-02 9.19888448e-03
      2.31888058e-04 2.04241392e-03 -6.32413139e-05</_>
    <_>
      5.58823049e-01 3.89241129e-02 5.90503700e-02 8.88584740e-03
      -1.72694694e-04 -1.52127619e-03 -1.07735563e-04</_>
    <_>
      4.85825986e-01 5.54171130e-02 7.55984262e-02 9.12143756e-03
      1.34841743e-04 9.06778791e-04 -1.97964764e-04</_>
    <_>
      4.19751793e-01 3.14934738e-02 2.35317536e-02 3.79573111e-03
      3.57965946e-05 6.29558810e-04 -2.34341792e-06</_>
    <_>
      6.03101790e-01 2.28383526e-01 1.60488859e-01 1.35976881e-01
      2.00545751e-02 6.49511516e-02 -1.14493782e-03</_>
    <_>
      1.24735963e+00 1.50518894e+00 1.54935755e-02 5.09204762e-03
      3.90439018e-05 2.91001820e-03 -2.28300869e-05</_>
    <_>
      4.59237248e-01 7.60162398e-02 4.92605530e-02 1.63858887e-02
      4.64820710e-04 4.45839157e-03 -2.58228738e-05</_>
    <_>
      5.09307683e-01 6.88882992e-02 6.42354488e-02 3.91197903e-03
      6.13307056e-05 4.11739311e-04 -9.17317720e-06</_>
    <_>
      3.40873688e-01 2.53513027e-02 2.00248789e-02 2.61497870e-03
      1.88841095e-05 4.12292662e-04 1.21066535e-06</_>
    <_>
      3.88786674e-01 3.45036164e-02 3.60478386e-02 4.07503545e-03
      4.91837745e-05 7.56828289e-04 4.50580410e-06</_>
    <_>
      4.58427250e-01 5.49062528e-02 6.97181672e-02 7.32697267e-03
      7.07623039e-05 1.23481717e-04 1.49719708e-04</_>
    <_>
      3.49688202e-01 6.93844212e-03 2.14854144e-02 3.48176254e-04
      -2.86845392e-07 -2.78423504e-05 -9.08064806e-07</_>
    <_>
      3.98585141e-01 3.07231825e-02 3.81060801e-02 2.80300737e-03
      2.37099885e-05 3.88426299e-04 1.66445025e-05</_>
    <_>
      3.61720413e-01 1.46354586e-02 1.50569798e-02 5.60288923e-03
      3.74215633e-05 5.04211523e-04 3.53265968e-05</_>
    <_>
      7.92899191e-01 2.87746459e-01 4.31130044e-02 4.28580539e-03
      -3.55939446e-05 -1.91888702e-03 -4.61196541e-05</_>
    <_>
      2.42870256e-01 1.45732732e-02 3.78772849e-03 4.90772945e-04
      6.68940061e-07 3.26994195e-05 1.59312652e-08</_>
    <_>
      2.85052896e-01 1.01284366e-02 4.23621200e-03 1.19722867e-03
      2.04432490e-06 1.18288677e-04 -1.75792775e-06</_>
    <_>
      7.47456372e-01 1.19639874e-01 5.79553358e-02 6.54685544e-03
      -1.09421795e-04 -1.22323900e-03 -6.54945397e-05</_>
    <_>
      6.38857961e-01 1.53482091e-02 7.94828683e-03 5.25089540e-03
      3.27098824e-05 -4.73104446e-04 8.98854250e-06</_>
    <_>
      2.67336339e-01 2.23556086e-02 4.61005978e-03 3.13640572e-04
      3.70938437e-07 1.21940366e-05 6.81074326e-08</_>
    <_>
      6.82953537e-01 3.28723751e-02 1.63051531e-01 5.29254181e-03
      1.53298533e-04 9.11072420e-04 -2.59201115e-05</_>
    <_>
      3.14311236e-01 1.51842106e-02 9.07843094e-03 1.10282411e-03
      3.27405314e-06 1.35881943e-04 1.20717618e-06</_>
    <_>
      1.69737482e+00 1.15101051e+00 2.08119178e+00 1.94401711e-01
      9.51726884e-02 1.13182642e-01 7.89451078e-02</_>
    <_>
      9.14188206e-01 1.06771961e-01 4.30318475e-01 5.09181991e-02
      4.77433950e-03 1.44199524e-02 5.83212031e-03</_>
    <_>
      3.59691739e-01 2.41685025e-02 1.09190051e-03 1.02756300e-03
      1.04755384e-06 1.35180380e-04 -2.95518447e-07</_>
    <_>
      3.39832693e-01 1.07686017e-02 9.01363045e-03 1.65388116e-03
      6.18672448e-06 1.48615960e-04 1.58151533e-06</_>
    <_>
      6.98847473e-01 1.24177404e-01 2.74436828e-02 9.79457237e-03
      -9.51285165e-06 3.17901350e-03 -1.60300930e-04</_>
    <_>
      7.30063975e-01 1.23285681e-01 1.79458007e-01 3.83405611e-02
      3.17410054e-03 1.34459063e-02 -1.98602720e-04</_>
    <_>
      4.46954429e-01 3.99165899e-02 5.07762879e-02 1.02712195e-02
      2.08425539e-04 1.94290420e-03 1.07608546e-04</_>
    <_>
      1.06619108e+00 3.27046514e-01 1.38929158e-01 5.19821560e-03
      -5.10306782e-05 2.21451116e-03 1.30039669e-04</_>
    <_>
      9.07164097e-01 2.81931579e-01 3.69526520e-02 2.75288336e-02
      6.98711898e-04 1.41668031e-02 -5.31715283e-04</_>
    <_>
      5.00920653e-01 1.07213102e-01 3.67129631e-02 1.06461463e-03
      -5.69167378e-06 -3.40167288e-04 -3.45023750e-06</_>
    <_>
      7.08790004e-01 5.83563671e-02 1.63979128e-01 1.50656700e-02
      7.43158220e-04 3.05466051e-03 -9.19022350e-05</_>
    <_>
      2.23924473e-01 1.82799564e-03 4.01564501e-03 5.51150762e-04
      8.17462933e-07 1.79809522e-05 6.37164206e-08</_>
    <_>
      7.95249760e-01 1.83862418e-01 1.47492737e-01 3.41486298e-02
      1.21285091e-03 1.41480519e-02 -2.09819106e-03</_>
    <_>
      1.06192672e+00 6.83394432e-01 1.64205506e-01 6.10700883e-02
      5.59701305e-03 2.94524226e-02 2.46446719e-03</_>
    <_>
      4.60059047e-01 2.15585791e-02 2.69621722e-02 1.99061073e-03
      1.41924011e-05 2.25356445e-04 -3.35402933e-06</_>
    <_>
      9.60666656e-01 3.58654350e-01 1.79437324e-01 1.25069348e-02
      -3.92895716e-04 -7.25617772e-03 -4.43486264e-04</_>
    <_>
      6.81987047e-01 6.58438802e-02 1.38871744e-01 3.45640443e-02
      2.01480626e-03 8.07735976e-03 1.29419880e-03</_>
    <_>
      1.13906264e+00 5.34020841e-01 1.02093112e+00 4.67449218e-01
      3.22769672e-01 3.39665383e-01 -9.97214857e-03</_>
    <_>
      6.07228994e-01 4.90898192e-02 6.34609535e-02 1.85498036e-02
      5.89457573e-04 3.68398940e-03 2.40009511e-04</_>
    <_>
      7.92989552e-01 2.72163421e-01 3.12640041e-01 1.25271350e-01
      2.23482084e-02 4.39809486e-02 1.07316319e-02</_>
    <_>
      5.64946473e-01 4.61680479e-02 4.73007970e-02 1.01446602e-02
      1.35600872e-04 1.62596966e-03 1.76056259e-04</_>
    <_>
      2.86319226e-01 2.07725801e-02 1.81034096e-02 5.40063670e-03
      5.00058704e-05 6.81211764e-04 -1.87365076e-05</_>
    <_>
      6.87583327e-01 1.36677548e-01 1.96765542e-01 9.61416438e-02
      1.30331488e-02 3.54530178e-02 2.23479001e-03</_>
    <_>
      1.34541583e+00 1.13911486e+00 4.37480569e-01 4.37111594e-02
      -3.36467777e-03 -4.62765209e-02 5.02157211e-03</_>
    <_>
      8.61359656e-01 3.34122509e-01 1.56243578e-01 1.23672076e-01
      1.71563644e-02 7.05535039e-02 1.09534012e-03</_>
    <_>
      2.56500244e-01 2.14392529e-03 5.95662626e-04 5.31840997e-05
      8.02648792e-09 -3.66406425e-07 5.01829556e-09</_>
    <_>
      3.02504897e-01 2.81141400e-02 1.80797763e-02 5.44148590e-03
      5.37124470e-05 8.09082820e-04 -5.29219642e-06</_>
    <_>
      9.14009690e-01 5.87267950e-02 7.36506060e-02 6.84389845e-02
      -3.30441515e-03 -4.68821451e-03 -3.56235215e-03</_>
    <_>
      4.03547287e-01 2.42630355e-02 3.39517854e-02 1.94016285e-03
      1.50629530e-05 2.99071893e-04 -4.58965360e-06</_>
    <_>
      4.88123357e-01 7.64227882e-02 6.27761111e-02 4.12155734e-03
      4.72985739e-05 6.47365814e-04 -4.64547375e-05</_>
    <_>
      3.46872658e-01 1.80887654e-02 3.18019465e-02 6.29729219e-03
      8.83415851e-05 5.59407985e-04 1.17258878e-05</_>
    <_>
      1.06439996e+00 1.28709003e-01 5.66703439e-01 6.41907230e-02
      5.34852035e-03 2.00984702e-02 -1.10128708e-02</_>
    <_>
      4.70359683e-01 7.42518529e-02 4.53183763e-02 4.88110585e-03
      4.83016775e-05 8.47407966e-04 -5.41956797e-05</_>
    <_>
      4.90326226e-01 5.93686774e-02 9.72973779e-02 2.63569281e-02
      1.09976646e-03 5.71796717e-03 -7.56314897e-04</_>
    <_>
      6.04747415e-01 4.60469536e-03 6.59270808e-02 2.31292588e-03
      2.77857234e-05 1.34220914e-04 -6.60971318e-06</_>
    <_>
      2.43414059e-01 1.82752777e-02 4.93417867e-03 2.21421290e-03
      7.27340966e-06 2.74689024e-04 -8.13330132e-07</_>
    <_>
      7.27519572e-01 1.76577091e-01 1.69352844e-01 2.85668205e-03
      -1.56392562e-05 -5.39799628e-04 6.08557566e-05</_>
    <_>
      8.85937989e-01 3.16415161e-01 2.32606560e-01 1.35995513e-02
      7.62200390e-04 5.83659997e-03 -6.40643339e-05</_>
    <_>
      5.07120371e-01 2.56633312e-02 5.89671172e-02 1.09173299e-03
      -6.70253939e-06 1.39278709e-04 5.63958383e-06</_>
    <_>
      1.86937487e+00 1.34925529e-01 4.31357718e+00 3.09266038e-02
      1.06540015e-02 -9.02578048e-03 -3.75332218e-03</_>
    <_>
      7.72825062e-01 1.97566062e-01 1.36843264e-01 5.63564301e-02
      4.91918949e-03 1.66305564e-02 5.43360831e-04</_>
    <_>
      8.81446123e-01 3.84085178e-01 3.34805578e-01 9.80826691e-02
      1.65813249e-02 5.65670729e-02 6.40110485e-03</_>
    <_>
      7.27479935e-01 2.49645025e-01 2.15383798e-01 1.01103537e-01
      1.47378612e-02 4.88619208e-02 2.32136785e-03</_>
    <_>
      8.75087380e-01 5.60655534e-01 2.66303778e-01 1.42866269e-01
      2.78610848e-02 1.02082610e-01 5.51943318e-04</_>
    <_>
      8.68268847e-01 3.98109704e-01 3.93122762e-01 1.95638821e-01
      5.39593510e-02 1.19423814e-01 5.66447573e-03</_>
    <_>
      8.04270923e-01 7.99876899e-02 2.40373224e-01 1.77659385e-03
      2.70198580e-05 1.02649057e-04 -2.48556844e-05</_>
    <_>
      6.91259921e-01 2.62351513e-01 1.95573047e-01 6.68938458e-02
      7.45834224e-03 2.85282135e-02 -1.70737470e-03</_>
    <_>
      9.74084854e-01 5.61807513e-01 5.69462478e-01 3.02970976e-01
      1.24647044e-01 2.26326346e-01 1.73189081e-02</_>
    <_>
      9.92473602e-01 3.48230124e-01 3.99645478e-01 1.53162539e-01
      3.57367992e-02 8.83532986e-02 1.26019316e-02</_>
    <_>
      8.67300034e-01 2.52705276e-01 2.84601569e-01 8.67999718e-02
      1.36423819e-02 4.17055748e-02 -8.18857370e-05</_>
    <_>
      8.90808165e-01 3.93040061e-01 4.52964902e-01 2.15772808e-01
      6.63902164e-02 1.21269807e-01 1.19495951e-02</_>
    <_>
      6.58692300e-01 2.20107466e-01 2.05508009e-01 8.14977735e-02
      1.01644350e-02 3.80573422e-02 -2.81523727e-03</_>
    <_>
      1.03820467e+00 1.68579578e-01 3.29533070e-01 8.46976489e-02
      8.97336844e-03 3.47738229e-02 1.09408051e-02</_>
    <_>
      6.69174969e-01 6.07788339e-02 7.60210529e-02 5.06359246e-03
      5.10561731e-05 -6.56782242e-04 8.52238591e-05</_>
    <_>
      7.00188458e-01 1.43935412e-01 1.59106553e-01 1.54332323e-02
      7.38865871e-04 4.46086843e-03 1.97348578e-04</_>
    <_>
      5.53457499e-01 2.62774248e-02 6.32457808e-02 8.03356245e-03
      1.77148351e-04 1.28395576e-03 -3.75441705e-05</_>
    <_>
      4.64339763e-01 3.91702764e-02 4.23670150e-02 3.09004652e-04
      -1.79905957e-08 4.84451230e-05 -1.11790587e-06</_>
    <_>
      7.42267787e-01 4.92531620e-02 2.37512067e-01 5.80296328e-04
      4.73683576e-06 9.32687690e-05 4.89641707e-06</_>
    <_>
      4.32318270e-01 6.37100488e-02 3.62370014e-02 1.47304861e-02
      3.20513500e-04 3.45785404e-03 1.14439543e-04</_>
    <_>
      7.37998784e-01 1.18282847e-02 2.92512804e-01 7.77131179e-03
      -2.71205878e-04 -7.36742106e-04 -2.52455706e-04</_>
    <_>
      6.26116991e-01 1.71766624e-01 2.09772542e-01 8.00965950e-02
      1.02794515e-02 3.31768841e-02 1.45806011e-03</_>
    <_>
      4.87303585e-01 5.41048460e-02 5.32422140e-02 1.51473712e-02
      3.61568964e-04 2.99826358e-03 2.33042651e-04</_>
    <_>
      6.63954198e-01 1.48323342e-01 1.96936682e-01 3.26074809e-02
      2.17318116e-03 1.22204442e-02 1.45087775e-03</_>
    <_>
      7.52619982e-01 1.27912253e-01 2.17755660e-01 5.25877997e-02
      5.24620945e-03 1.82913505e-02 -2.03606626e-03</_>
    <_>
      4.87194508e-01 8.02415237e-02 3.99339907e-02 1.13160955e-02
      2.07471545e-04 3.19708441e-03 1.21748766e-04</_>
    <_>
      5.61220467e-01 2.79367473e-02 4.91056405e-02 1.80326216e-02
      3.74701514e-04 2.91467668e-03 3.84112995e-04</_>
    <_>
      7.48106241e-01 1.65568441e-01 2.71271855e-01 9.77968872e-02
      1.50506170e-02 3.27130742e-02 5.21666417e-03</_>
    <_>
      3.91784728e-01 9.63507500e-03 3.93372215e-02 1.84678321e-03
      8.82937366e-06 5.86694987e-05 -1.30312592e-05</_>
    <_>
      4.49083358e-01 3.66932992e-03 7.58550912e-02 1.34625449e-03
      7.76679735e-06 6.63727697e-05 -1.11695890e-05</_>
    <_>
      6.23369038e-01 3.50745469e-02 1.82895437e-01 1.57495495e-02
      8.33408732e-04 2.91476864e-03 -1.41202181e-04</_>
    <_>
      1.21145058e+00 7.69821525e-01 4.70415324e-01 2.16762498e-01
      6.56484291e-02 1.52857095e-01 2.19401233e-02</_>
    <_>
      2.75486052e-01 6.17912738e-04 1.43438848e-02 9.84116014e-06
      -1.72578596e-09 -6.29579233e-08 3.26998961e-09</_>
    <_>
      4.76522595e-01 1.05592005e-01 5.11663035e-02 3.82752111e-03
      7.52929191e-06 2.24794494e-04 -5.30316065e-05</_>
    <_>
      5.66651106e-01 3.48335132e-02 7.41914511e-02 2.56799143e-02
      8.12293729e-05 4.26113512e-03 1.11795391e-03</_>
    <_>
      9.42286789e-01 3.44075412e-01 1.35367453e-01 5.88270575e-02
      4.60990565e-03 2.35032327e-02 2.51130201e-03</_>
    <_>
      3.99248570e-01 6.33317605e-02 2.31437739e-02 8.40740185e-03
      1.11605623e-04 2.10858299e-03 3.60261984e-05</_>
    <_>
      9.20168579e-01 2.86189541e-02 5.32011569e-01 9.84556973e-03
      -2.33416940e-04 -6.64962165e-04 -6.73245231e-04</_>
    <_>
      2.47273207e-01 2.55535543e-02 1.44306291e-03 3.02873610e-04
      1.88722368e-07 1.83713491e-05 6.69100686e-08</_>
    <_>
      4.44161564e-01 4.25290354e-02 5.90728633e-02 1.12325298e-02
      2.84458743e-04 2.31306488e-03 5.29300378e-05</_>
    <_>
      5.61684430e-01 1.82369605e-01 4.11090590e-02 1.11816777e-02
      2.39314017e-04 3.77893029e-03 -1.41802329e-05</_>
    <_>
      5.28275549e-01 8.22982788e-02 7.67753944e-02 1.22312671e-02
      3.36031255e-04 3.50198010e-03 1.66042431e-04</_>
    <_>
      4.31505978e-01 3.70322242e-02 1.89926028e-02 1.06719881e-02
      1.32922054e-04 2.02389574e-03 7.35950234e-05</_>
    <_>
      1.36361408e+00 4.02829163e-02 1.60102296e+00 9.12737399e-02
      2.94737481e-02 1.83080565e-02 -1.86735932e-02</_>
    <_>
      1.18006945e+00 2.08275437e-01 5.69969714e-01 2.97371268e-01
      3.57991494e-02 6.74331412e-02 1.17075175e-01</_>
    <_>
      3.07251722e-01 4.22268622e-02 5.06659318e-03 5.22454036e-04
      -2.31092002e-07 -8.37959669e-06 -8.18005958e-07</_>
    <_>
      7.77835548e-01 5.90871908e-02 1.72529057e-01 4.58772806e-03
      6.98484655e-05 -2.26326688e-06 -1.08537701e-04</_>
    <_>
      2.50157923e-01 1.93384092e-03 5.33998385e-03 3.39281338e-04
      4.55092589e-07 1.34467255e-05 -3.80184098e-08</_>
    <_>
      3.00719440e-01 7.18482397e-03 1.95363294e-02 4.39836585e-04
      3.15622628e-07 9.69179382e-07 1.25008455e-06</_>
    <_>
      3.26740116e-01 7.04228226e-03 1.29444813e-02 8.40522698e-04
      2.75049683e-06 2.91108299e-05 -3.48347015e-07</_>
    <_>
      2.82805890e-01 2.56207725e-03 8.81934911e-03 6.34094467e-05
      -2.05520951e-08 -2.16836429e-06 -4.27333617e-08</_>
    <_>
      1.13539588e+00 6.38698399e-01 9.58159287e-03 2.48279553e-02
      2.07672623e-04 1.41606554e-02 3.21737170e-04</_>
    <_>
      2.46488214e-01 6.45728607e-04 3.47725512e-03 4.50971915e-04
      3.18226739e-07 -3.04576997e-06 -4.66534203e-07</_>
    <_>
      8.00968587e-01 5.07294722e-02 4.24003601e-01 5.16340509e-03
      -2.38428576e-04 -1.16131431e-03 -3.89903907e-05</_>
    <_>
      3.73204738e-01 1.31021794e-02 3.78903337e-02 3.74890468e-03
      4.44241596e-05 4.26314655e-04 4.78190941e-06</_>
    <_>
      3.69080812e-01 1.19052874e-02 2.64377501e-02 3.90476617e-03
      2.78525713e-05 2.59502267e-04 2.82533529e-05</_>
    <_>
      3.92937869e-01 6.52214373e-03 2.73216665e-02 3.20105068e-03
      2.83000827e-05 2.40675930e-04 9.76032334e-06</_>
    <_>
      3.08366835e-01 3.63868545e-03 1.47692999e-02 8.09560937e-04
      2.79904248e-06 3.82913713e-05 4.01995770e-08</_>
    <_>
      3.73231173e-01 1.48575185e-02 2.22592074e-02 1.03113160e-03
      -4.81157304e-06 1.05946783e-04 1.11904217e-06</_>
    <_>
      2.41277188e-01 2.23943926e-02 6.09484152e-04 9.01932421e-04
      6.54289124e-07 1.34481132e-04 -1.38158825e-07</_>
    <_>
      3.06861192e-01 3.40185985e-02 8.55913572e-03 1.84310589e-03
      7.30880038e-06 3.37754580e-04 -4.13604653e-07</_>
    <_>
      4.34641033e-01 8.55264738e-02 3.72561952e-03 1.61148771e-03
      2.77680010e-06 3.57579847e-04 -2.80723702e-06</_>
    <_>
      4.79810596e-01 3.07886358e-02 1.80314984e-02 1.17355150e-04
      -1.59592773e-07 -2.00526702e-05 -6.06087340e-08</_>
    <_>
      9.56219614e-01 1.56071946e-01 4.79701668e-01 7.86164403e-02
      1.20495306e-02 3.10302377e-02 -9.37508326e-03</_>
    <_>
      7.19044864e-01 1.68855507e-02 3.46026987e-01 3.75027023e-03
      1.34516988e-04 1.58536874e-04 -1.25157958e-05</_>
    <_>
      3.17876756e-01 5.92277944e-03 4.41025058e-03 8.47259536e-04
      -1.56297256e-06 4.20055367e-05 4.89335662e-07</_>
    <_>
      5.36042750e-01 5.11498041e-02 5.70454933e-02 5.22743352e-03
      3.22359992e-05 1.13497279e-03 8.43179296e-05</_>
    <_>
      4.88039583e-01 6.17646575e-02 3.11707631e-02 8.79969084e-05
      -1.36460500e-07 -1.23171067e-05 5.11692591e-08</_>
    <_>
      6.86535180e-01 7.10378140e-02 2.40087152e-01 1.13270795e-02
      3.95449111e-04 2.73662899e-03 -4.38791001e-04</_>
    <_>
      5.79409361e-01 1.66867599e-01 6.98053390e-02 1.57545693e-02
      5.10944228e-04 6.42478745e-03 -1.09095337e-04</_>
    <_>
      9.33034956e-01 1.78205520e-01 5.32721817e-01 3.02621257e-02
      3.78974807e-03 6.70421775e-03 6.33742951e-04</_>
    <_>
      4.80458707e-01 9.43174064e-02 1.70723144e-02 1.10914989e-04
      1.26092672e-07 2.43721988e-05 8.59980105e-08</_>
    <_>
      8.85203421e-01 1.77517384e-02 5.74653223e-02 7.59103000e-02
      -4.93019074e-03 2.54559855e-04 9.10990406e-04</_>
    <_>
      3.63474995e-01 3.48489620e-02 6.02923986e-03 1.88324921e-04
      2.35767867e-08 3.50881492e-05 1.99285054e-07</_>
    <_>
      6.30375504e-01 7.69051164e-02 1.23734623e-01 5.96908620e-04
      4.36961000e-06 1.58926283e-04 2.68741519e-06</_>
    <_>
      1.02062500e+00 6.67712510e-01 6.66149616e-01 2.33443931e-01
      9.18108448e-02 1.70108363e-01 6.73612813e-03</_>
    <_>
      8.20702255e-01 1.57560304e-01 1.52201742e-01 1.07895043e-02
      3.37113132e-04 3.11508891e-03 2.78436084e-04</_>
    <_>
      3.02393794e-01 1.77225713e-02 5.31296618e-03 3.66625936e-05
      1.03286428e-08 -2.33790138e-06 1.24555788e-08</_>
    <_>
      4.51265574e-01 7.03884196e-03 7.33459592e-02 2.09281151e-03
      6.10379993e-06 1.10335481e-04 2.52001773e-05</_>
    <_>
      3.73911828e-01 3.41547020e-02 3.03998366e-02 2.23043095e-03
      1.70957719e-05 2.86236667e-04 6.71200996e-06</_>
    <_>
      2.69906223e-01 1.58756319e-02 3.06895864e-03 1.28213374e-03
      1.52316943e-06 1.51557251e-04 -2.03672994e-06</_>
    <_>
      3.31496149e-01 3.57575226e-03 1.78734679e-02 8.67577983e-05
      1.01742344e-07 3.15129478e-06 3.63346011e-08</_>
    <_>
      3.92198890e-01 3.71029135e-03 3.54399234e-02 2.86389200e-04
      3.04554732e-07 1.74412653e-05 8.60061164e-07</_>
    <_>
      8.95823181e-01 4.66796048e-02 4.52731699e-01 8.11923202e-03
      4.47998289e-04 1.72888942e-03 -2.03998963e-04</_>
    <_>
      2.29754135e-01 3.43769509e-03 4.88042395e-04 4.59575385e-04
      2.32474022e-08 -9.42584757e-06 2.16407543e-07</_>
    <_>
      1.04596686e+00 4.05638695e-01 6.71503693e-02 4.11175266e-02
      2.15352513e-03 -6.28600887e-04 -1.74105444e-04</_>
    <_>
      4.23260808e-01 6.53537884e-02 3.62489931e-02 1.04369177e-02
      2.00815528e-04 2.55432050e-03 -2.97334173e-05</_>
    <_>
      4.80899572e-01 3.49029042e-02 6.95549622e-02 7.26891914e-04
      1.76487947e-06 1.94433687e-05 4.85789315e-06</_>
    <_>
      6.44839764e-01 1.12930782e-01 1.35322228e-01 6.47432462e-04
      -5.49807464e-06 -2.16927365e-04 2.54860583e-06</_>
    <_>
      3.64829153e-01 8.21329933e-03 1.18332412e-02 1.69159146e-03
      7.15634314e-06 8.02537470e-05 2.46273316e-06</_>
    <_>
      6.91219032e-01 2.60962062e-02 3.97200257e-01 7.97934085e-03
      -2.79932108e-04 1.52143082e-04 -3.51330440e-04</_>
    <_>
      1.21911681e+00 3.45991254e-01 8.83970857e-01 2.19901074e-02
      1.98928057e-03 1.48253818e-03 2.33293651e-03</_>
    <_>
      5.66286206e-01 5.57331815e-02 6.90090954e-02 1.59122832e-02
      3.75361415e-04 2.91663897e-03 3.70326277e-04</_>
    <_>
      5.31434357e-01 1.55182378e-02 6.93893582e-02 2.29841727e-03
      -2.89579020e-05 -2.48700439e-04 -1.98963494e-06</_>
    <_>
      5.09691358e-01 5.65768778e-02 6.05533831e-02 8.53102189e-03
      1.60095093e-04 1.20571349e-03 1.09387191e-04</_>
    <_>
      5.51578224e-01 1.44628853e-01 3.60124465e-03 8.87756702e-04
      -7.50475067e-07 -1.11138484e-04 -1.39871520e-06</_>
    <_>
      8.45332026e-01 6.30046725e-02 2.69479930e-01 3.99756152e-03
      -1.19087435e-05 5.46284951e-04 1.30665125e-04</_>
    <_>
      8.35452974e-01 2.79363573e-01 3.29080313e-01 5.17537333e-02
      4.28544497e-03 2.31175069e-02 -5.22034289e-03</_>
    <_>
      3.34605604e-01 2.86839567e-02 6.69506844e-03 6.39897888e-04
      -8.70723227e-08 -1.20274372e-05 -1.32160903e-06</_>
    <_>
      7.82720029e-01 2.47892234e-02 8.06333795e-02 3.29570984e-03
      -3.96527794e-05 3.85857129e-04 -3.62504106e-05</_>
    <_>
      5.57304382e-01 5.84317744e-02 1.34184897e-01 1.00948587e-02
      1.31196430e-04 -2.21084891e-04 3.47602239e-04</_>
    <_>
      4.86404568e-01 8.60621110e-02 1.15201706e-02 4.98319860e-04
      9.64246510e-07 -9.28953887e-05 7.04117951e-07</_>
    <_>
      5.46131134e-01 1.81358308e-01 2.57857516e-02 1.77100324e-03
      -2.93419885e-06 -3.36495170e-04 1.16026613e-05</_>
    <_>
      8.49475980e-01 1.06434338e-03 1.90220714e-01 6.69633038e-03
      -1.67531020e-04 1.12964241e-04 -1.70442814e-04</_>
    <_>
      3.30315053e-01 6.12038821e-02 1.54445842e-02 1.03245704e-02
      1.30312852e-04 2.53730267e-03 4.04242337e-06</_>
    <_>
      8.43705237e-01 1.68055400e-01 4.57893789e-01 1.19252698e-02
      8.69390031e-04 4.55968780e-03 1.43913334e-04</_>
    <_>
      7.00045645e-01 2.68149912e-01 2.35049680e-01 1.32623479e-01
      2.32587960e-02 6.74669221e-02 2.70772493e-03</_>
    <_>
      6.43087208e-01 1.44665256e-01 1.53271988e-01 2.42975745e-02
      1.47531938e-03 8.32027290e-03 1.48526058e-04</_>
    <_>
      8.11981499e-01 3.40714902e-01 1.69660911e-01 1.92839745e-02
      9.65364859e-04 4.59710229e-03 -5.33607323e-04</_>
    <_>
      2.19503060e-01 4.79312893e-03 3.12162470e-03 1.25123945e-04
      7.56684244e-08 2.78535390e-06 -1.97323722e-08</_>
    <_>
      4.74937856e-01 7.59946704e-02 5.75727457e-03 4.71963454e-03
      8.64567664e-06 9.12537915e-04 -2.30328533e-05</_>
    <_>
      2.53451049e-01 9.95514076e-03 6.00274745e-03 1.49287982e-04
      1.24265384e-07 -4.26849010e-06 -6.73071412e-08</_>
    <_>
      3.45910400e-01 5.03149990e-04 1.17816236e-02 2.05789634e-04
      2.13387239e-07 -3.94266135e-06 -2.39047012e-07</_>
    <_>
      2.10395724e-01 7.09860260e-03 2.88906321e-03 4.94963824e-05
      -1.86879827e-08 -3.99925784e-06 1.04373965e-09</_>
    <_>
      2.49845892e-01 2.37869960e-03 1.95693132e-03 5.08506782e-04
      7.83820155e-08 -1.56156148e-05 5.01170348e-07</_>
    <_>
      2.68390059e-01 1.42329317e-02 1.02902753e-02 2.57995969e-04
      -1.59720003e-07 -2.43330323e-05 -3.88846274e-07</_>
    <_>
      2.30576307e-01 4.71042702e-03 6.40519848e-03 9.48384695e-05
      -7.38804431e-08 -5.16190403e-06 -2.31761121e-09</_>
    <_>
      4.96610224e-01 8.87176301e-03 6.55785874e-02 2.16195500e-03
      -2.51991169e-05 1.98613809e-04 -5.26134363e-06</_>
    <_>
      4.26011354e-01 5.82475066e-02 1.58437155e-02 1.27077091e-03
      2.18122500e-06 2.17340872e-04 -5.26833855e-06</_>
    <_>
      4.57280844e-01 1.38973361e-02 3.98022607e-02 1.21971639e-03
      6.35337346e-06 1.14021668e-05 5.64438824e-06</_>
    <_>
      2.34266773e-01 8.63821805e-03 2.59933877e-04 1.83750308e-04
      -6.83489265e-09 1.13147007e-05 -3.95722140e-08</_>
    <_>
      2.14002937e-01 5.87393437e-03 2.40425230e-03 2.97327879e-05
      4.77167594e-09 1.87254648e-06 6.35820152e-09</_>
    <_>
      3.28089833e-01 9.41708311e-03 1.70389973e-02 1.27895386e-04
      -9.36442603e-08 1.22153269e-05 1.63940783e-07</_>
    <_>
      2.50706553e-01 8.59988667e-03 2.90231849e-03 6.80926431e-04
      -2.11419604e-07 5.70367520e-05 -9.33605122e-07</_>
    <_>
      3.55736256e-01 3.09270658e-02 7.90776592e-03 2.63963921e-05
      8.66854055e-09 3.00748570e-06 -8.38436787e-09</_>
    <_>
      5.06322622e-01 1.78046860e-02 7.38513395e-02 3.79041559e-03
      6.33350501e-05 2.68508738e-04 -3.23363633e-06</_>
    <_>
      2.92851180e-01 1.03393029e-02 1.30027495e-02 1.66347745e-05
      1.48421764e-09 1.40623320e-06 7.59276642e-09</_>
    <_>
      7.39569783e-01 1.35908589e-01 1.01916000e-01 5.19596785e-03
      4.44186335e-05 -8.51256831e-04 1.11012967e-04</_>
    <_>
      8.31385672e-01 2.45296746e-01 1.34015247e-01 1.58109404e-02
      -2.67693511e-04 -7.11692590e-03 6.76784315e-04</_>
    <_>
      3.68370533e-01 5.48049584e-02 7.64201768e-03 1.61668402e-03
      1.59964759e-06 -5.99280283e-05 -5.45273133e-06</_>
    <_>
      4.61969614e-01 2.83418335e-02 4.18397598e-02 1.68031931e-03
      -6.89397848e-06 -2.24570598e-04 -1.22871852e-05</_>
    <_>
      2.16266721e-01 1.45707466e-03 4.15376434e-03 9.75679577e-05
      -2.95980023e-08 -3.49900324e-06 -5.46074119e-08</_>
    <_>
      5.92878997e-01 1.25304654e-01 9.77953076e-02 6.03071740e-03
      -3.10983996e-05 -1.40201778e-03 -1.43118043e-04</_>
    <_>
      7.65535533e-01 2.69180462e-02 5.41262627e-01 1.42413229e-02
      -7.86025892e-04 -5.10398066e-04 9.72380280e-04</_>
    <_>
      4.63621765e-01 3.63478661e-02 5.58031648e-02 2.37346836e-03
      -9.65417598e-07 -1.89377271e-04 2.72981470e-05</_>
    <_>
      5.50063848e-01 2.38397047e-02 5.38892932e-02 4.64722689e-04
      2.27807777e-06 5.06443712e-06 -4.67924281e-07</_>
    <_>
      8.51323783e-01 3.85083370e-02 4.17983755e-02 2.45614741e-02
      -7.02926656e-04 -4.81799571e-03 3.53871408e-04</_>
    <_>
      4.46640283e-01 2.06660815e-02 7.68178627e-02 2.39939196e-03
      9.79232664e-06 2.10111786e-04 -3.10682117e-05</_>
    <_>
      3.81635815e-01 4.77056541e-02 2.11262926e-02 1.41274242e-03
      5.60832541e-06 -1.47203227e-05 -5.30231819e-06</_>
    <_>
      3.55737597e-01 1.13299675e-02 3.73947732e-02 1.44871138e-03
      9.98688120e-06 1.49554311e-04 3.73646390e-06</_>
    <_>
      4.39954072e-01 5.83458170e-02 2.09472622e-04 4.99627553e-03
      4.70597161e-06 1.17854634e-03 -1.99485316e-06</_>
    <_>
      8.53516042e-01 1.00228861e-02 3.11998844e-01 6.80671365e-04
      -2.54175916e-06 5.20777166e-06 9.58815508e-06</_>
    <_>
      3.93485248e-01 7.35158164e-06 3.72541547e-02 1.05399941e-03
      9.57967359e-07 -2.80557947e-06 6.53477809e-06</_>
    <_>
      3.15897971e-01 1.38797676e-02 1.29989600e-02 1.20311521e-03
      3.12706857e-06 1.06317370e-04 -3.58594957e-06</_>
    <_>
      9.26682770e-01 1.89165652e-01 4.37989175e-01 5.05566411e-03
      1.86645975e-05 3.82591621e-04 2.37169195e-04</_>
    <_>
      3.92097086e-01 2.44979728e-02 5.00052534e-02 1.06948905e-03
      -3.52212987e-06 -8.85189656e-05 6.98322856e-06</_>
    <_>
      3.71507823e-01 1.44267408e-02 2.69763358e-02 1.41235208e-03
      8.15943622e-06 1.50964974e-04 3.06974198e-06</_>
    <_>
      4.37024474e-01 4.81900610e-02 6.23522652e-03 2.79926579e-03
      -5.14107205e-06 -4.25338862e-04 -1.05041627e-05</_>
    <_>
      4.07236189e-01 5.03049558e-03 4.39783968e-02 7.10909721e-04
      3.65735968e-06 3.13575474e-05 -1.55712985e-06</_>
    <_>
      3.43936741e-01 4.31185365e-02 1.98027268e-02 6.97838748e-03
      8.02485520e-05 1.14451372e-03 1.70230669e-05</_>
    <_>
      5.60128331e-01 3.71015146e-02 3.22341807e-02 5.91534073e-04
      1.28178911e-07 7.24346637e-06 2.57983879e-06</_>
    <_>
      4.44382906e-01 1.89920571e-02 5.86312823e-02 2.65168818e-03
      2.83502832e-05 2.95499514e-04 -1.70133499e-05</_>
    <_>
      4.34873134e-01 1.33742820e-02 4.89607900e-02 1.47913024e-03
      -8.47982938e-06 -8.22344155e-05 -9.30233909e-06</_>
    <_>
      4.70746487e-01 3.59836593e-02 5.27157634e-02 2.13714060e-03
      6.94543405e-06 -5.90207419e-05 2.15945674e-05</_>
    <_>
      5.89874446e-01 3.39759178e-02 1.41571283e-01 2.22769566e-02
      1.21315999e-03 3.83105571e-03 3.05524271e-04</_>
    <_>
      5.71325481e-01 2.85331756e-02 9.28845257e-02 8.53607059e-03
      2.23205585e-04 7.44289893e-04 -8.91698655e-05</_>
    <_>
      5.14413118e-01 2.56681833e-02 7.99126178e-02 1.40856486e-03
      1.46543107e-05 2.06976430e-04 -2.92926302e-06</_>
    <_>
      5.30649483e-01 2.10429188e-02 1.19806774e-01 2.07994021e-02
      1.28121144e-04 2.27011886e-04 1.03035069e-03</_>
    <_>
      4.13362950e-01 1.27775669e-02 3.01614944e-02 3.12372739e-03
      1.35384453e-05 3.46045126e-04 2.71300960e-05</_>
    <_>
      3.40360105e-01 7.65016004e-02 4.93471557e-03 1.35713432e-03
      3.39733879e-06 2.02523195e-04 8.90419813e-07</_>
    <_>
      5.76628208e-01 1.17633082e-01 1.18823349e-01 2.20023431e-02
      9.09634284e-04 7.54615245e-03 6.61967206e-04</_>
    <_>
      3.93530667e-01 1.95114966e-02 1.90904364e-02 8.06518737e-03
      5.32449776e-05 7.22818950e-04 8.47358388e-05</_>
    <_>
      3.88509870e-01 1.10904975e-02 3.59660313e-02 5.36922785e-03
      1.47100136e-05 1.53958114e-04 7.31484979e-05</_>
    <_>
      3.30655575e-01 1.40961288e-02 1.45674367e-02 3.93342430e-04
      -9.40617099e-07 -4.42205419e-05 -4.21154454e-08</_>
    <_>
      4.40110594e-01 7.93918669e-02 1.18265916e-02 1.29998114e-03
      4.14873966e-06 2.16089204e-04 2.96139342e-06</_>
    <_>
      3.68288428e-01 2.49339752e-02 1.98377594e-02 5.79673890e-03
      5.50900186e-05 9.08201211e-04 2.87949570e-05</_>
    <_>
      4.54511851e-01 1.85804516e-02 5.11034541e-02 1.90280407e-04
      5.91839807e-07 2.16761109e-05 -4.24083488e-08</_>
    <_>
      3.59124035e-01 1.15656098e-02 1.76321279e-04 1.82912627e-03
      -5.02068929e-07 -2.96999715e-05 9.09374762e-07</_>
    <_>
      3.94160986e-01 9.79855098e-03 3.01661249e-02 2.31310558e-02
      5.91288379e-04 -3.64721433e-04 1.54010588e-04</_>
    <_>
      5.79952061e-01 8.46807808e-02 2.23169592e-03 2.39452324e-03
      1.95718826e-06 6.23238680e-04 5.17780427e-06</_>
    <_>
      3.60380977e-01 2.31880210e-02 2.42220107e-02 1.10147754e-03
      2.07093308e-06 -1.79494491e-05 -5.29913405e-06</_>
    <_>
      4.15925533e-01 3.92548135e-03 3.49110737e-02 6.07964059e-04
      1.47027629e-06 1.30344006e-06 2.38397956e-06</_>
    <_>
      3.30142438e-01 1.44302687e-02 1.37578631e-02 1.18044042e-03
      2.23556094e-06 9.12114192e-05 4.19907064e-06</_>
    <_>
      3.52587759e-01 1.65197197e-02 2.19130795e-02 8.50809563e-04
      3.47375544e-06 1.08925509e-04 1.19535798e-06</_>
    <_>
      4.15493101e-01 4.19228971e-02 1.20569468e-02 2.79512140e-03
      1.56226906e-05 5.44691342e-04 4.38458301e-06</_>
    <_>
      5.07363856e-01 4.17925119e-02 1.01307571e-01 1.11747310e-02
      3.68934532e-04 2.28252052e-03 7.24981292e-05</_>
    <_>
      4.60192025e-01 4.96564321e-02 5.55834025e-02 8.94774497e-03
      1.74534158e-04 1.99058698e-03 9.67285887e-05</_>
    <_>
      4.33311403e-01 4.40321304e-02 4.16060835e-02 3.61154880e-03
      4.36865739e-05 5.66029979e-04 -7.16925888e-06</_>
    <_>
      3.09157103e-01 5.50254202e-03 5.05282637e-03 2.83640285e-04
      2.59898684e-07 -5.11269127e-06 2.18529237e-07</_>
    <_>
      4.47824359e-01 9.02987793e-02 2.86210608e-02 3.96644743e-03
      3.32476811e-05 5.43343835e-04 -2.60888992e-05</_>
    <_>
      5.24078906e-01 5.17594777e-02 7.85600469e-02 1.84585096e-03
      -4.26543056e-06 -4.07893938e-04 2.18146670e-05</_>
    <_>
      5.27885020e-01 1.57406013e-02 7.54302368e-02 1.67572964e-02
      3.74959636e-04 1.37261034e-03 4.62976459e-04</_>
    <_>
      2.01454118e-01 9.27439483e-04 1.56440435e-03 9.82337806e-05
      2.44218299e-08 2.91665901e-06 -2.97748510e-08</_>
    <_>
      2.28694782e-01 7.58561026e-03 8.15013016e-04 1.35715294e-04
      2.13173390e-08 4.38004645e-06 -3.97850748e-08</_>
    <_>
      3.89646143e-01 1.98788270e-02 5.37462393e-03 1.66756718e-03
      -3.99737473e-06 1.06062915e-04 2.99063004e-06</_>
    <_>
      2.75225371e-01 5.91607997e-03 4.99742338e-04 8.28536751e-04
      -3.51645184e-07 -5.63253525e-05 -4.00728396e-07</_>
    <_>
      2.30290636e-01 2.67339195e-03 6.24639506e-04 7.83826457e-04
      4.77811113e-07 1.63847853e-05 2.69266366e-07</_>
    <_>
      4.07927573e-01 1.82821732e-02 2.05999352e-02 6.03886647e-03
      2.25260555e-05 3.14401055e-04 -6.34759344e-05</_>
    <_>
      2.51030862e-01 1.22754155e-02 5.24866628e-03 1.48499079e-04
      1.18809915e-07 8.64965477e-06 5.54256658e-08</_>
    <_>
      3.47129464e-01 7.79501643e-05 3.29901762e-02 2.22061717e-04
      5.74188505e-07 -1.57043758e-06 -1.77639478e-07</_>
    <_>
      6.71973050e-01 1.39083579e-01 8.10145512e-02 3.58889648e-03
      4.31384178e-05 5.18002023e-04 -4.34053618e-05</_>
    <_>
      2.97939390e-01 1.33684222e-02 2.88120192e-03 7.88586680e-04
      -5.60758281e-07 -7.89121113e-05 1.04808612e-06</_>
    <_>
      4.48062718e-01 8.16000253e-02 2.73563173e-02 2.84448895e-03
      2.48442611e-05 7.09813263e-04 3.51724361e-06</_>
    <_>
      5.69983125e-01 5.64887375e-02 5.08370460e-04 9.58239310e-04
      -3.47737313e-07 1.81102194e-04 -5.71298756e-07</_>
    <_>
      5.31901419e-01 3.30492295e-02 8.84917825e-02 2.41429396e-02
      7.54002249e-04 2.66912649e-03 8.22665694e-04</_>
    <_>
      2.68139094e-01 1.68242566e-02 3.20097059e-03 3.18273611e-04
      3.12913926e-07 1.67528287e-05 -7.27035285e-08</_>
    <_>
      6.62954509e-01 5.37262149e-02 7.50888065e-02 2.73859520e-02
      6.14776742e-04 -4.14826383e-04 1.07903359e-03</_>
    <_>
      4.05084401e-01 8.36014077e-02 2.48690322e-02 4.79398295e-03
      4.90379061e-05 8.84659705e-04 1.83103602e-05</_>
    <_>
      5.29018283e-01 7.62236267e-02 8.14575627e-02 1.92822870e-02
      7.42416771e-04 5.22139436e-03 1.81133932e-04</_>
    <_>
      4.35718209e-01 1.02157176e-01 2.77181584e-02 9.03393421e-03
      1.39794734e-04 2.53353897e-03 2.98898049e-05</_>
    <_>
      3.87921154e-01 5.78282541e-03 1.82432809e-03 1.13972812e-03
      1.46789648e-06 1.42272474e-05 -7.39032259e-07</_>
    <_>
      4.36474323e-01 4.72969264e-02 2.80813221e-02 2.03483785e-03
      -1.25473861e-07 4.32528650e-05 -1.53811579e-05</_>
    <_>
      3.29741061e-01 2.83583812e-02 2.06281897e-02 9.86910542e-04
      -2.51345045e-06 -1.23345992e-04 3.67576899e-06</_>
    <_>
      4.21681434e-01 1.81284416e-02 6.54781163e-02 1.22407288e-03
      1.08964177e-05 8.35050596e-05 -1.16669571e-06</_>
    <_>
      3.43648553e-01 1.47722978e-02 2.02219728e-02 1.39088649e-03
      7.33043453e-06 1.65611695e-04 8.22928030e-07</_>
    <_>
      4.42635506e-01 1.68559700e-02 8.08892474e-02 7.51263136e-03
      1.68610481e-04 9.16073855e-04 -7.66052690e-05</_>
    <_>
      3.11413646e-01 2.99422424e-02 5.67454845e-03 1.80069264e-03
      5.72171075e-06 3.01301538e-04 6.27863642e-07</_>
    <_>
      4.09586221e-01 2.75453236e-02 3.76212858e-02 4.05950239e-03
      4.50414263e-05 6.73658738e-04 2.20927504e-05</_>
    <_>
      3.05753589e-01 2.18042266e-02 4.74969437e-03 2.47322349e-03
      7.79793663e-06 3.57390265e-04 3.32369882e-06</_>
    <_>
      2.97450483e-01 2.47409213e-02 3.83396097e-03 1.02186471e-03
      1.90498088e-06 1.57217728e-04 6.79730022e-07</_>
    <_>
      4.12560225e-01 4.28369492e-02 2.31500920e-02 1.83690060e-03
      1.14394697e-05 2.35752217e-04 -3.55310749e-06</_>
    <_>
      2.92578280e-01 1.48951393e-02 3.73308407e-03 2.12959945e-03
      4.96848315e-06 2.54982035e-04 3.37177130e-06</_>
    <_>
      6.11981511e-01 3.05912830e-02 4.48522866e-02 9.01884996e-05
      1.23218172e-07 1.00065236e-05 1.33118277e-07</_>
    <_>
      3.00296664e-01 1.80250406e-02 2.18100520e-03 1.02912053e-03
      1.52807252e-06 1.37530369e-04 -2.05275057e-07</_>
    <_>
      3.08794886e-01 2.04264726e-02 7.54010119e-03 7.60606083e-04
      1.64167250e-06 7.09732194e-05 -7.89151443e-07</_>
    <_>
      4.77673441e-01 8.72244388e-02 2.65919883e-02 1.04706315e-02
      1.40238510e-04 2.97439867e-03 1.04207124e-04</_>
    <_>
      3.61727506e-01 2.24095844e-02 1.57828759e-02 2.56224722e-03
      1.25100887e-05 3.07975279e-04 1.04397477e-05</_>
    <_>
      2.49769792e-01 1.89773440e-02 2.53040972e-03 3.63787898e-04
      3.22856067e-07 1.40958118e-05 1.32622489e-07</_>
    <_>
      4.44304824e-01 9.62272100e-03 4.45809476e-02 2.21620151e-03
      -1.44813848e-05 -2.16029148e-04 -1.65997681e-05</_>
    <_>
      3.66436958e-01 3.21841612e-02 1.65411469e-03 4.51013073e-03
      1.22246156e-05 7.86240969e-04 1.51995891e-06</_>
    <_>
      5.63251853e-01 3.99139710e-02 1.03216067e-01 8.16940609e-03
      2.08667858e-04 3.23631568e-04 1.12841284e-04</_>
    <_>
      5.45525134e-01 4.11848128e-02 1.05784722e-01 1.44562162e-02
      3.69628862e-04 1.86988187e-03 4.27738036e-04</_>
    <_>
      4.48797971e-01 1.37524325e-02 4.04137298e-02 7.49920635e-03
      1.00136735e-04 6.49955648e-04 8.37661282e-05</_>
    <_>
      5.63205004e-01 4.89789359e-02 8.37253928e-02 2.76766401e-02
      1.13602018e-03 5.63568762e-03 6.96027128e-04</_>
    <_>
      5.51264405e-01 7.89495651e-03 5.43511547e-02 8.26382835e-04
      1.09629912e-06 -2.26342536e-06 5.42870794e-06</_>
    <_>
      3.05488825e-01 3.85311060e-02 4.03716788e-03 3.14499740e-03
      1.04863484e-05 5.35409083e-04 3.95240022e-06</_>
    <_>
      4.42672819e-01 5.50793894e-02 5.19671105e-02 6.50163600e-03
      1.19453303e-04 1.45091990e-03 3.62691435e-06</_>
    <_>
      4.11067843e-01 2.15183049e-02 5.00300415e-02 3.76522564e-03
      4.96705070e-05 5.14444779e-04 -1.42621893e-05</_>
    <_>
      2.44694173e-01 1.08701298e-02 5.36023034e-03 7.17890798e-04
      1.39147085e-06 4.54906003e-05 -2.16732175e-07</_>
    <_>
      3.23344350e-01 2.87487498e-03 1.59896817e-02 2.54321448e-03
      1.62048564e-05 1.16532588e-04 -6.50086122e-07</_>
    <_>
      5.19386053e-01 1.18465506e-01 3.28888223e-02 2.03305995e-03
      1.36486824e-05 5.78338164e-04 -9.49149762e-06</_>
    <_>
      5.67183554e-01 1.63442627e-01 7.97099322e-02 3.14134881e-02
      1.56289688e-03 1.26665151e-02 1.68184502e-04</_>
    <_>
      1.88729331e-01 3.03572789e-03 8.05816904e-04 1.20453233e-05
      1.15546550e-09 8.53994351e-08 -2.70533540e-10</_>
    <_>
      6.90476418e-01 3.11097056e-01 1.67203769e-02 1.82550529e-03
      -3.20618051e-06 -3.86030064e-04 9.56231270e-06</_>
    <_>
      4.20665026e-01 3.12779136e-02 3.38081792e-02 1.10557734e-03
      6.60568321e-06 1.94847889e-04 -1.43233615e-06</_>
    <_>
      4.74698186e-01 4.45860885e-02 4.27567847e-02 2.44606449e-03
      1.54821610e-05 5.79837906e-05 1.96485144e-05</_>
    <_>
      5.80719352e-01 2.30179597e-02 4.07330282e-02 5.17734094e-03
      4.02610603e-05 6.79809717e-04 6.34971730e-05</_>
    <_>
      4.03669477e-01 3.57323163e-03 1.53229190e-02 1.02697953e-03
      -4.03794547e-06 -3.31935298e-05 5.40271401e-07</_>
    <_>
      4.38431412e-01 3.68617997e-02 4.92364466e-02 3.26868566e-03
      3.31081501e-05 4.30751126e-04 2.49672994e-05</_>
    <_>
      2.54933745e-01 1.20134000e-03 1.56771671e-02 8.43537215e-04
      1.81996882e-07 -2.90080443e-05 -3.06213587e-06</_>
    <_>
      4.14649665e-01 3.32615152e-02 4.94611189e-02 1.92575436e-03
      -1.63730310e-05 -2.79728614e-04 -9.22828076e-06</_>
    <_>
      3.79271865e-01 1.34201180e-02 1.82345212e-02 3.13595496e-03
      2.09701611e-05 3.51487484e-04 1.10724286e-05</_>
    <_>
      3.40167552e-01 3.79657224e-02 5.78714628e-03 5.78911859e-05
      2.94121687e-08 5.21875018e-06 -1.60537450e-08</_>
    <_>
      3.32462281e-01 1.85731370e-02 1.78706665e-02 3.74575786e-04
      -9.57402676e-07 -5.07998557e-05 1.50279988e-07</_>
    <_>
      3.97761375e-01 6.59738248e-03 6.25761077e-02 1.75210822e-03
      7.25606742e-06 -2.50847279e-05 -1.68502775e-05</_>
    <_>
      3.46055537e-01 3.82427908e-02 1.20772431e-02 3.63714807e-03
      2.36094475e-05 6.84232742e-04 4.86763201e-06</_>
    <_>
      3.90778273e-01 6.38479665e-02 1.64002310e-02 7.79667345e-04
      1.57458953e-06 4.19824937e-05 -2.30075557e-06</_>
    <_>
      4.05720353e-01 7.38546923e-02 1.01940231e-02 2.88789999e-03
      1.29087666e-05 7.71908322e-04 8.88181876e-06</_>
    <_>
      4.31213498e-01 6.42260313e-02 4.57147658e-02 2.85137631e-03
      2.40274749e-05 3.56294884e-04 2.19652266e-05</_>
    <_>
      2.66145706e-01 9.78252478e-03 1.05296662e-02 3.75966076e-04
      4.97545898e-07 -1.87489804e-05 5.58592944e-07</_>
    <_>
      4.87659514e-01 1.48809189e-02 1.02239303e-01 3.21481959e-03
      3.30489347e-05 -1.28614590e-06 -4.80073577e-05</_>
    <_>
      4.03506339e-01 8.14546794e-02 4.03509252e-02 2.44387165e-02
      7.48095335e-04 6.87382184e-03 -1.71222768e-04</_>
    <_>
      2.27325901e-01 1.12609030e-03 4.98184282e-03 1.40829536e-04
      6.15969924e-08 1.25766928e-06 -1.00600346e-07</_>
    <_>
      6.13129854e-01 6.98145013e-03 6.80901259e-02 2.89650843e-03
      -3.32629425e-05 -1.59814444e-05 -2.34144391e-05</_>
    <_>
      5.68636835e-01 6.03559837e-02 1.16975814e-01 8.10232386e-03
      2.37246088e-04 2.31209837e-04 7.70296610e-05</_>
    <_>
      5.25542378e-01 9.67016071e-02 4.84345146e-02 6.92299451e-04
      2.45213357e-07 9.64187057e-05 -4.00133104e-06</_>
    <_>
      4.12756681e-01 1.08268626e-01 9.45031457e-03 6.75112335e-03
      5.36416519e-05 2.14310735e-03 -5.51719359e-06</_>
    <_>
      3.47217590e-01 5.77443875e-02 1.15347886e-02 8.12427024e-04
      -2.88737908e-07 -7.40095857e-05 -2.47021421e-06</_>
    <_>
      6.37237608e-01 2.32012853e-01 3.83077562e-02 6.55034231e-03
      1.02202590e-04 2.61327135e-03 -1.79229683e-05</_>
    <_>
      3.11009049e-01 2.60434225e-02 2.71992702e-02 1.06763607e-02
      1.77849186e-04 1.72236399e-03 -3.83351726e-05</_>
    <_>
      3.91382992e-01 3.36383358e-02 2.26607975e-02 7.20749886e-05
      -8.89703387e-08 -5.35088793e-06 2.38501983e-08</_>
    <_>
      4.49440628e-01 9.69780907e-02 2.13799514e-02 1.99691160e-03
      1.28199954e-05 6.03402732e-04 2.42820988e-06</_>
    <_>
      4.06040013e-01 5.29301949e-02 2.05020644e-02 9.04004846e-05
      -1.06797913e-07 -9.38630546e-06 -6.11606339e-08</_>
    <_>
      3.81357789e-01 1.34530049e-02 3.96370664e-02 2.71240599e-03
      2.54843162e-05 3.12120217e-04 -1.18966336e-05</_>
    <_>
      4.16785330e-01 4.41555679e-03 4.31868397e-02 3.15000332e-04
      3.53815153e-07 2.02340652e-05 1.10664439e-06</_>
    <_>
      5.69775820e-01 2.01446012e-01 9.72185005e-03 1.81281473e-02
      2.10150989e-04 7.18853390e-03 -1.17277319e-04</_>
    <_>
      2.77622670e-01 1.74345244e-02 1.17142862e-02 6.22686639e-04
      1.57479758e-06 2.04125408e-05 5.90174068e-07</_>
    <_>
      4.18302268e-01 3.22970450e-02 4.36656037e-03 1.37033146e-02
      -9.29711678e-05 1.22740737e-03 -5.09164056e-05</_>
    <_>
      4.95264471e-01 4.84923460e-02 8.16246122e-02 1.34218829e-02
      4.44178586e-04 2.95515731e-03 -8.14956456e-06</_>
    <_>
      6.06281579e-01 6.09487183e-02 4.24245466e-03 1.70054995e-02
      1.24066646e-04 4.03405260e-03 -7.39654206e-05</_>
    <_>
      5.72964132e-01 3.72740254e-02 9.86403748e-02 1.17917452e-02
      3.82158323e-04 1.79117336e-03 -1.25237479e-04</_>
    <_>
      3.41229439e-01 8.98018386e-03 1.54538900e-02 3.35448247e-04
      6.83823885e-07 2.07610924e-06 -3.40168953e-07</_>
    <_>
      6.30956233e-01 1.39311731e-01 2.08710153e-02 1.68002618e-03
      9.33549290e-06 5.88730385e-04 3.43742431e-06</_>
    <_>
      5.19023836e-01 1.25536725e-01 5.11925854e-03 3.53062432e-03
      7.15574606e-06 2.82628374e-04 -1.31945253e-05</_>
    <_>
      4.60603565e-01 6.73938468e-02 2.42802873e-02 6.38208026e-03
      3.18126586e-05 -1.46499333e-05 7.27981533e-05</_>
    <_>
      8.28079879e-01 1.29526466e-01 5.84091060e-02 3.57329994e-02
      6.80056750e-04 -7.95436371e-03 -1.48407288e-03</_>
    <_>
      4.57914799e-01 2.48500910e-02 3.06839757e-02 3.44353868e-03
      1.57513641e-05 3.29437171e-04 3.16989572e-05</_>
    <_>
      5.59884846e-01 4.33305204e-02 8.68365094e-02 1.13835726e-02
      2.04908094e-04 2.18808767e-03 2.93444085e-04</_>
    <_>
      8.03573906e-01 1.28807634e-01 7.18113482e-02 7.69606326e-03
      -1.30062079e-04 2.66445987e-03 -1.25769016e-04</_>
    <_>
      4.79412049e-01 3.35341766e-02 3.99545617e-02 4.04233299e-03
      4.37980052e-05 3.87850159e-04 2.68491276e-05</_>
    <_>
      5.05741715e-01 1.35650173e-01 2.79835686e-02 1.77376915e-03
      4.41203792e-06 7.97752873e-05 -1.16919955e-05</_>
    <_>
      4.79753345e-01 8.31914991e-02 2.30003241e-02 5.50780492e-03
      5.81993227e-05 1.33836956e-03 2.13502153e-05</_>
    <_>
      4.90281135e-01 4.66298163e-02 2.50580646e-02 4.52238863e-04
      -6.90638274e-07 -9.74683135e-05 1.35671905e-06</_>
    <_>
      3.98121893e-01 1.84791256e-02 4.41728719e-02 1.55292323e-03
      -5.57075191e-06 -1.24739672e-04 1.15928178e-05</_>
    <_>
      5.46500742e-01 7.72389621e-02 5.20676039e-02 7.03178253e-03
      -1.03115970e-04 -1.63522596e-03 8.64329413e-05</_>
    <_>
      6.52944982e-01 1.73303589e-01 5.64322025e-02 1.56219210e-03
      -5.18832576e-06 -4.14960057e-04 1.37195411e-05</_>
    <_>
      2.89338350e-01 1.24948760e-02 1.93828736e-02 6.25584857e-04
      1.83342104e-06 6.86303683e-05 -1.17643981e-06</_>
    <_>
      4.47697043e-01 7.25538209e-02 5.03287539e-02 1.39419443e-03
      2.14317851e-07 -1.54208115e-04 -1.16766951e-05</_>
    <_>
      4.57447618e-01 7.90281519e-02 4.77997251e-02 1.54056610e-03
      1.31986080e-05 3.46143468e-04 7.52689971e-07</_>
    <_>
      4.20507431e-01 5.11002578e-02 2.72627193e-02 2.10739207e-04
      2.92427025e-08 4.00241224e-05 -5.04282127e-07</_>
    <_>
      4.14072096e-01 5.73895350e-02 2.85107400e-02 1.18533638e-03
      4.04357752e-06 2.67485593e-04 -5.57960175e-06</_>
    <_>
      4.30961162e-01 5.04828384e-03 3.37472372e-02 1.85458374e-03
      4.39804080e-06 -7.20244061e-05 -1.39972954e-05</_>
    <_>
      2.43997097e-01 1.41381957e-02 3.98324663e-03 9.38347948e-04
      1.72941316e-06 8.65355250e-05 -5.47848742e-07</_>
    <_>
      2.18269929e-01 1.11399395e-02 1.02488755e-03 1.10123030e-04
      3.69887410e-08 6.69766769e-06 -7.35158656e-10</_>
    <_>
      2.39006922e-01 1.58985443e-02 1.57980784e-03 2.83722213e-04
      1.88821133e-07 1.26045670e-05 -2.06895692e-08</_>
    <_>
      5.16342402e-01 4.52453904e-02 6.89174011e-02 2.06349022e-03
      9.73240185e-06 -1.23945749e-04 -2.26011307e-05</_>
    <_>
      4.80402678e-01 6.88763559e-02 3.96224186e-02 2.71278853e-03
      6.99152133e-06 -1.80809875e-04 -2.72422658e-05</_>
    <_>
      3.17263126e-01 1.72258504e-02 8.00028630e-03 2.66340037e-04
      2.90884913e-07 -1.30651524e-05 -2.57950262e-07</_>
    <_>
      3.28102618e-01 2.70592142e-02 4.48809890e-03 6.61658589e-03
      3.15804537e-05 1.08809653e-03 1.73993540e-05</_>
    <_>
      4.10707325e-01 3.46828178e-02 5.41527234e-02 3.84618645e-03
      -1.48422432e-05 -1.73116976e-04 5.34868850e-05</_>
    <_>
      3.76460254e-01 2.98299622e-02 4.41115908e-02 6.63350755e-03
      9.70279652e-05 1.06437155e-03 -5.88355033e-05</_>
    <_>
      4.63076442e-01 4.22354741e-03 6.51900470e-02 3.56581598e-03
      -2.82978472e-05 6.28394118e-05 -4.64210752e-05</_>
    <_>
      5.19608438e-01 7.02870870e-03 5.89645654e-02 5.91645017e-03
      -3.05536487e-05 -4.83274693e-04 1.06198560e-04</_>
    <_>
      4.34361309e-01 7.63657019e-02 6.93012848e-02 4.00000215e-02
      1.99999101e-03 1.10502392e-02 -6.59791811e-04</_>
    <_>
      4.31386501e-01 6.50801733e-02 4.53603221e-03 6.96610252e-04
      8.50506524e-07 1.60671465e-04 9.00002306e-07</_>
    <_>
      4.82507229e-01 7.86030889e-02 3.96463759e-02 1.33217196e-03
      -8.24811832e-06 -3.11316486e-04 5.06949527e-06</_>
    <_>
      5.90447664e-01 1.65384561e-01 9.85743180e-02 1.97435766e-02
      8.24988645e-04 4.84051509e-03 -2.79362750e-04</_>
    <_>
      6.45198584e-01 6.98900670e-02 1.46918237e-01 3.07515617e-02
      2.06637033e-03 6.99780509e-03 5.06635442e-05</_>
    <_>
      5.29175341e-01 3.65655087e-02 8.22162628e-02 1.29747987e-02
      2.39152549e-04 2.43698014e-03 3.49838141e-04</_>
    <_>
      4.88516748e-01 2.68042143e-02 8.89127702e-02 5.72128920e-03
      -8.04213414e-05 -3.99511511e-04 1.00913916e-04</_>
    <_>
      6.65360868e-01 3.24352980e-01 4.73074690e-02 5.86706866e-03
      2.99470321e-05 -1.19178614e-04 9.30448950e-05</_>
    <_>
      5.84299028e-01 2.08314091e-01 2.49820054e-02 1.16765546e-03
      2.76312079e-07 -1.75331399e-04 -6.30040540e-06</_>
    <_>
      3.91626120e-01 2.62558572e-02 1.58111670e-03 4.55131725e-04
      3.33667231e-07 5.02940311e-05 1.94244734e-07</_>
    <_>
      4.72979158e-01 5.02348356e-02 4.95033450e-02 8.11362173e-03
      6.10228199e-05 1.75993762e-03 1.50722495e-04</_>
    <_>
      5.20091116e-01 3.27916928e-02 2.45536183e-04 3.70385678e-04
      -1.10588260e-07 -1.34019947e-05 1.56944129e-08</_>
    <_>
      4.46596146e-01 1.58698801e-02 5.03728949e-02 6.63135061e-03
      5.69872209e-05 6.88129803e-04 1.06966436e-04</_>
    <_>
      5.09503067e-01 3.20159420e-02 4.37737927e-02 1.92616344e-03
      1.35630080e-05 7.98400870e-05 1.13518345e-05</_>
    <_>
      2.78756231e-01 8.40843003e-03 7.16977287e-03 7.67311489e-04
      -1.21300417e-07 5.82916473e-05 -1.79564950e-06</_>
    <_>
      2.37189516e-01 1.27135655e-02 8.69589765e-03 1.47231075e-03
      5.19896457e-06 1.26873681e-04 8.50854576e-07</_>
    <_>
      5.65052211e-01 2.56838966e-02 8.65032300e-02 1.31860357e-02
      1.19113174e-04 8.86909140e-04 4.29110660e-04</_>
    <_>
      4.12357777e-01 3.61669734e-02 2.93948259e-02 5.95095614e-03
      7.79198308e-05 1.12539658e-03 -1.11065237e-05</_>
    <_>
      4.69697595e-01 2.76492462e-02 5.31124435e-02 9.99119878e-03
      1.55891423e-04 1.38097198e-03 1.69322739e-04</_>
    <_>
      2.10466221e-01 2.60364590e-03 4.88474825e-03 5.50131335e-05
      2.71439085e-08 -1.90912175e-07 -8.74588757e-09</_>
    <_>
      4.58415061e-01 1.55469598e-02 4.13783267e-02 6.04568562e-03
      5.61248926e-05 6.91401481e-04 7.74172877e-05</_>
    <_>
      3.49015594e-01 2.12344583e-02 2.44939257e-03 1.78078923e-03
      3.49430275e-06 2.59496039e-04 1.27365490e-06</_>
    <_>
      3.04301620e-01 2.72074491e-02 1.40747265e-03 1.50693185e-03
      9.51348909e-07 6.40846192e-05 1.97770464e-06</_>
    <_>
      4.35320646e-01 1.14726812e-01 3.18537168e-02 1.29063968e-02
      2.61686801e-04 3.70609108e-03 -1.34591005e-06</_>
    <_>
      4.21305418e-01 1.72807723e-02 5.06884903e-02 3.78917134e-03
      4.80889867e-05 3.31709743e-04 -2.10978178e-05</_>
    <_>
      2.46250793e-01 1.78214107e-02 4.80458257e-04 4.25103244e-05
      -1.04710662e-09 4.87488160e-06 5.98440719e-09</_>
    <_>
      2.56060421e-01 2.21936516e-02 2.27459590e-03 2.53590042e-05
      -1.60024505e-09 -2.39242513e-06 5.87647664e-09</_>
    <_>
      7.16403008e-01 2.98304051e-01 2.88587864e-02 1.22108068e-02
      2.14490414e-04 4.24103858e-03 8.08480618e-05</_>
    <_>
      2.91460693e-01 7.80621776e-03 4.63015586e-03 1.95472129e-03
      2.94104643e-06 5.62170571e-05 5.09237225e-06</_>
    <_>
      2.00900331e-01 2.34714360e-03 2.30936613e-03 1.86300982e-04
      -5.68919845e-08 -8.92909156e-06 1.08148036e-07</_>
    <_>
      6.52820766e-01 1.15109548e-01 9.01869982e-02 3.99130257e-03
      -1.68355882e-06 3.46056535e-04 -7.57070957e-05</_>
    <_>
      3.09414744e-01 6.78204559e-03 2.49783508e-02 2.01689079e-04
      4.49640993e-07 -4.65541871e-06 -5.24929149e-08</_>
    <_>
      2.47351348e-01 6.12012716e-03 6.31217426e-03 6.89381093e-04
      1.39576366e-06 4.09234126e-05 -3.46229655e-07</_>
    <_>
      2.81167537e-01 6.82745920e-03 5.19952620e-04 8.84954177e-04
      2.62491312e-07 7.10022941e-05 5.39860707e-07</_>
    <_>
      2.59562761e-01 1.24967424e-02 8.15629214e-03 9.99268610e-04
      -3.21882169e-07 -4.14413298e-05 -2.83457257e-06</_>
    <_>
      2.41967782e-01 2.17634533e-02 1.41974457e-03 1.21235556e-04
      3.76372142e-08 2.65013500e-06 3.33664794e-08</_>
    <_>
      5.47961652e-01 2.33854055e-02 7.27106854e-02 1.11647174e-02
      5.28331475e-06 1.69997034e-03 3.18061269e-04</_>
    <_>
      5.21269083e-01 7.36440122e-02 4.77607064e-02 3.27252410e-03
      2.67069445e-05 4.10253444e-04 -3.09935422e-05</_>
    <_>
      4.27775890e-01 5.62365130e-02 5.72070945e-03 4.05143807e-03
      4.35986476e-06 3.30973620e-04 -1.90111550e-05</_>
    <_>
      4.42207932e-01 6.95326701e-02 1.74977363e-03 1.03130087e-03
      1.38490793e-06 2.27164637e-04 -3.61780579e-08</_>
    <_>
      4.65507060e-01 3.82876466e-03 2.75709294e-02 8.83484434e-04
      2.59306398e-06 -4.43739118e-05 3.50555388e-06</_>
    <_>
      5.77773154e-01 1.09946355e-01 6.72960877e-02 2.15865076e-02
      8.14407889e-04 7.12993229e-03 -1.16873081e-04</_>
    <_>
      3.72488230e-01 4.89013866e-02 2.83043459e-02 3.69418692e-03
      3.53232208e-05 7.44799210e-04 -1.33874337e-05</_>
    <_>
      4.52652305e-01 9.38016474e-02 2.09852029e-02 7.26713659e-03
      8.96316342e-05 2.03293166e-03 4.47354842e-06</_>
    <_>
      3.17406893e-01 3.43663953e-02 2.17102822e-02 4.78434097e-03
      4.85587771e-05 6.24064531e-04 -4.42795863e-06</_>
    <_>
      4.26785886e-01 1.15900852e-01 2.88773198e-02 2.06717979e-02
      4.94883163e-04 6.59144856e-03 -1.00894104e-04</_>
    <_>
      4.32969242e-01 7.06266239e-03 1.57233495e-02 5.64442296e-03
      3.08751041e-05 4.04193503e-04 4.32924353e-05</_>
    <_>
      2.93046117e-01 3.70512670e-03 2.09602825e-02 1.27984397e-03
      -2.25177337e-06 -1.92382486e-05 6.23460892e-06</_>
    <_>
      4.96720582e-01 8.59580114e-02 6.50244346e-03 9.55259020e-05
      7.52832108e-08 2.55987561e-05 7.55464080e-10</_>
    <_>
      4.34879631e-01 6.87090158e-02 6.90265223e-02 7.74914306e-03
      1.52504173e-04 7.48564664e-04 9.41413091e-05</_>
    <_>
      4.99094427e-01 4.33321856e-02 7.64335841e-02 1.88269978e-03
      -1.04722467e-05 -3.70264373e-04 2.00099803e-05</_>
    <_>
      2.98530728e-01 1.35502387e-02 1.74604766e-02 4.55204723e-03
      3.00283373e-05 4.87832207e-04 -2.72989691e-05</_>
    <_>
      4.51752156e-01 1.07886568e-02 3.31489407e-02 5.55763836e-04
      1.77099071e-06 3.40251718e-05 -1.59811179e-06</_>
    <_>
      3.74115825e-01 3.74412946e-02 4.75640595e-03 7.06879218e-05
      2.88486959e-08 1.12504913e-05 2.91165438e-08</_>
    <_>
      3.42317432e-01 2.97882911e-02 2.00768039e-02 1.71384879e-03
      7.95224787e-06 2.86970229e-04 -6.15056115e-06</_>
    <_>
      4.40036148e-01 4.82936762e-02 4.20032889e-02 2.94722966e-03
      3.13775636e-05 5.93430130e-04 -9.52562732e-06</_>
    <_>
      2.24306449e-01 4.55670925e-05 5.70375612e-03 2.60772271e-04
      -2.64318089e-07 -1.36092171e-06 1.76864745e-07</_>
    <_>
      4.48488057e-01 4.76715751e-02 8.03169236e-02 1.36765447e-02
      3.74221738e-04 2.76435004e-03 -2.55777850e-04</_>
    <_>
      3.72329682e-01 1.14225456e-02 1.58046801e-02 4.70951607e-04
      9.19603224e-07 1.47037254e-05 -8.97332939e-07</_>
    <_>
      4.32051778e-01 5.57173230e-02 6.35844767e-02 1.00338506e-02
      2.34583014e-04 2.21155514e-03 9.59332028e-05</_>
    <_>
      3.45690548e-01 2.07631253e-02 4.38408144e-02 3.75114568e-03
      2.77165382e-05 3.17932398e-04 3.93170558e-05</_>
    <_>
      3.28961402e-01 2.39147283e-02 8.94891378e-03 2.46710086e-04
      2.40706726e-07 2.69953198e-05 -2.76476271e-07</_>
    <_>
      4.80241507e-01 1.49876866e-02 7.20775053e-02 5.58691972e-04
      -7.14913710e-08 -4.58076574e-05 -3.54462418e-06</_>
    <_>
      2.02492982e-01 2.37493869e-03 2.27951631e-03 1.62718934e-05
      -1.52827251e-09 -7.23106950e-07 2.73594836e-09</_>
    <_>
      3.87817174e-01 5.26812635e-02 3.50636285e-04 8.32455917e-05
      -1.41417722e-08 -4.35187161e-07 1.51145940e-09</_>
    <_>
      4.72657651e-01 7.53711015e-02 3.91274244e-02 9.31219757e-03
      1.77632683e-04 2.49065040e-03 6.56067823e-06</_>
    <_>
      3.74262214e-01 1.26297874e-02 1.84070843e-03 2.39467295e-03
      2.62476829e-06 1.25466759e-04 4.28806197e-06</_>
    <_>
      5.41060805e-01 7.74895549e-02 6.23971745e-02 1.42673329e-02
      2.68182281e-04 2.72190641e-03 3.30594805e-04</_>
    <_>
      3.53252113e-01 2.38001123e-02 1.80518366e-02 4.14571405e-04
      1.50655914e-08 -5.31416517e-05 -1.13402177e-06</_>
    <_>
      4.74396735e-01 6.04633130e-02 3.62486467e-02 7.45238224e-03
      1.13723989e-04 1.83245784e-03 4.54953006e-05</_>
    <_>
      4.83831704e-01 6.91185296e-02 1.03626586e-02 1.75843679e-03
      -1.24775354e-08 -1.10832319e-04 7.50628669e-06</_>
    <_>
      5.21685183e-01 4.64652479e-02 1.13055915e-01 1.85561199e-02
      7.53693690e-04 2.09686672e-03 -3.92820075e-04</_>
    <_>
      6.83302224e-01 1.37605116e-01 1.28788009e-01 1.24483677e-02
      3.87774518e-04 9.27414570e-04 -3.13154684e-04</_>
    <_>
      4.45594817e-01 1.07712410e-01 9.01413783e-02 5.10146432e-02
      3.44069698e-03 1.65920034e-02 -3.59512138e-04</_>
    <_>
      8.03130746e-01 3.12365413e-01 6.18466400e-02 1.90662537e-02
      6.19281083e-04 6.38052402e-03 2.12485684e-04</_>
    <_>
      3.04156840e-01 2.61397869e-03 8.91047157e-03 6.87423907e-03
      4.97331421e-05 1.97673566e-04 2.05212418e-05</_>
    <_>
      4.90320295e-01 4.48620296e-04 7.91582018e-02 1.40746427e-03
      -3.85079329e-06 -2.92422119e-05 -1.43483203e-05</_>
    <_>
      3.72510254e-01 2.08473746e-02 3.07234377e-02 3.45729268e-03
      3.30084549e-05 4.98540758e-04 1.34192078e-05</_>
    <_>
      4.30992126e-01 4.25298475e-02 3.65896896e-02 5.25540859e-03
      4.55304762e-05 4.77025722e-04 5.69034200e-05</_>
    <_>
      4.18853313e-01 2.63514812e-03 2.73868889e-02 1.27341098e-03
      6.88403634e-06 6.28597554e-05 3.02689750e-06</_>
    <_>
      4.28300440e-01 1.00459391e-02 4.89287823e-02 6.44521276e-03
      8.58668063e-05 5.41937945e-04 7.56772060e-05</_>
    <_>
      4.46029067e-01 2.86153834e-02 3.54119167e-02 1.71271304e-03
      1.10819774e-05 1.95636516e-04 -7.42300244e-06</_>
    <_>
      4.89142805e-01 8.38017985e-02 1.77463330e-02 1.07553590e-03
      1.46932985e-06 -1.24419865e-04 4.46321292e-06</_>
    <_>
      5.75769365e-01 8.46888348e-02 6.70216158e-02 8.09788238e-04
      5.40753717e-06 1.65264501e-04 2.51965207e-06</_>
    <_>
      3.32938939e-01 6.36325078e-03 1.10835796e-02 1.44803606e-03
      4.26822680e-06 6.56532575e-05 3.92871561e-06</_>
    <_>
      4.89507467e-01 5.71112633e-02 4.52306569e-02 5.60869183e-03
      -8.13560982e-05 -1.28564250e-03 3.68979054e-05</_>
    <_>
      6.28957689e-01 1.48864731e-01 8.98443386e-02 1.05557851e-02
      2.76821258e-04 5.43944014e-04 -1.70418818e-04</_>
    <_>
      3.13743323e-01 1.88757537e-03 1.63346641e-02 8.22246948e-04
      -1.29349849e-06 -2.23626557e-05 2.72167495e-06</_>
    <_>
      3.53386313e-01 2.88751582e-03 2.52660438e-02 1.09816268e-04
      -7.33623580e-08 -4.42196188e-06 1.67567421e-07</_>
    <_>
      2.90884465e-01 3.91622307e-03 1.45662017e-03 1.47895535e-05
      -1.89910443e-09 -5.17002661e-07 1.05141340e-09</_>
    <_>
      3.33159715e-01 7.56723341e-03 1.93435661e-02 1.09709986e-03
      3.53276641e-06 9.11096140e-05 3.61424168e-06</_>
    <_>
      3.69057804e-01 4.89720479e-02 3.04372068e-02 5.38223376e-03
      6.61249360e-05 8.91216972e-04 -1.93159631e-05</_>
    <_>
      3.39849204e-01 8.74401350e-03 1.69543177e-02 1.20737916e-03
      5.28357941e-06 7.02628458e-05 1.38731718e-06</_>
    <_>
      5.42002022e-01 2.22992748e-02 9.41633880e-02 4.53302031e-03
      -6.98289587e-05 -6.76643976e-04 6.24086242e-05</_>
    <_>
      4.51528966e-01 1.05590612e-01 1.27722276e-02 4.01317282e-03
      2.83024510e-05 1.21098803e-03 4.94938513e-06</_>
    <_>
      4.95168597e-01 1.12048991e-01 2.81253085e-02 4.28303936e-03
      3.87646542e-05 1.08666683e-03 2.65914259e-05</_>
    <_>
      4.87452239e-01 3.37499790e-02 5.47504574e-02 4.90756519e-03
      7.40183750e-05 7.00530247e-04 3.15039288e-05</_>
    <_>
      4.55232918e-01 9.69233289e-02 8.87740497e-03 7.27796135e-03
      5.34362298e-05 2.23067403e-03 -2.38085631e-05</_>
    <_>
      4.60273981e-01 4.02543060e-02 3.81988883e-02 1.69642502e-03
      -1.50446613e-06 -1.38892414e-04 1.35729961e-05</_>
    <_>
      3.87421340e-01 4.09440398e-02 1.00574903e-02 1.71641330e-03
      6.95534209e-06 2.66869116e-04 1.57503803e-06</_>
    <_>
      3.94192636e-01 5.84313571e-02 4.93780756e-03 4.21540253e-03
      1.47022283e-05 1.01674744e-03 -1.23982381e-05</_>
    <_>
      3.64708394e-01 4.62628119e-02 6.24853047e-03 1.88718643e-03
      6.16172383e-06 3.77095974e-04 -2.00762133e-06</_>
    <_>
      4.92594689e-01 1.08095288e-01 2.01008227e-02 1.44634433e-02
      2.46408599e-04 4.47891420e-03 -1.00175121e-05</_>
    <_>
      4.69683498e-01 8.34656134e-02 5.05899899e-02 8.84318259e-03
      1.41355442e-04 1.60023908e-03 1.22492129e-04</_>
    <_>
      4.32617426e-01 4.68593501e-02 2.17622463e-02 2.00229976e-03
      5.65468213e-07 -1.72542932e-05 1.32052837e-05</_>
    <_>
